wcat,wdog
7.804316282272338867e-02,-5.367685109376907349e-02
-1.637220010161399841e-02,6.942670792341232300e-02
-1.976260915398597717e-02,3.844502568244934082e-02
-1.196103077381849289e-02,-6.376163568347692490e-03
2.245559357106685638e-02,-4.516028985381126404e-02
1.991485990583896637e-02,2.115036547183990479e-02
-1.654632762074470520e-02,-9.315302595496177673e-03
-2.439681440591812134e-02,4.260144382715225220e-02
-6.944431923329830170e-03,1.956391520798206329e-02
1.012915465980768204e-02,9.860650636255741119e-03
-9.122690185904502869e-03,-6.253627128899097443e-03
-7.750566583126783371e-03,8.393881842494010925e-03
-9.421936701983213425e-04,1.708636991679668427e-03
2.115880697965621948e-02,-2.811410231515765190e-04
2.045901492238044739e-02,-1.049047335982322693e-02
2.387366071343421936e-02,2.845027111470699310e-02
1.066713500767946243e-02,5.720935878343880177e-04
-3.040377981960773468e-02,-1.528431009501218796e-02
-1.300285384058952332e-02,-1.481007505208253860e-02
-5.217601545155048370e-03,2.688360586762428284e-02
-2.126359147951006889e-03,-1.855533337220549583e-03
-2.770723309367895126e-03,-7.624274585396051407e-03
-1.092255208641290665e-02,1.764933019876480103e-02
7.598329335451126099e-02,-9.244799613952636719e-02
4.592715948820114136e-02,-1.350793708115816116e-02
6.743533164262771606e-02,-6.126778200268745422e-02
1.309567969292402267e-02,1.996835693717002869e-02
-2.319754101336002350e-02,1.287229917943477631e-02
-2.391835674643516541e-02,-2.478245459496974945e-02
-2.123611792922019958e-02,1.303513627499341965e-02
-7.179400883615016937e-03,-9.859595447778701782e-03
-1.216001342982053757e-02,-1.268055755645036697e-02
1.556314062327146530e-02,2.055653184652328491e-02
6.946984212845563889e-03,2.138258330523967743e-02
4.352662339806556702e-02,-5.367836728692054749e-02
-4.366220906376838684e-03,-4.670188296586275101e-03
3.262271406129002571e-03,2.895727986469864845e-03
7.355236262083053589e-02,-3.798468783497810364e-02
-1.812715083360671997e-02,1.679729111492633820e-02
2.433766610920429230e-03,8.373097516596317291e-04
1.767496578395366669e-02,1.029893383383750916e-02
-3.305183723568916321e-02,5.442571640014648438e-02
3.844278398901224136e-03,-9.633800014853477478e-03
1.554044988006353378e-02,1.629487983882427216e-02
-4.123980179429054260e-03,-5.555025767534971237e-03
1.074723340570926666e-02,5.393775645643472672e-03
6.440808624029159546e-02,-9.158971905708312988e-02
3.117090649902820587e-02,1.130264345556497574e-02
-2.944865822792053223e-02,1.098940707743167877e-02
4.340240731835365295e-02,-8.656141161918640137e-02
2.883601700887084007e-03,-1.423142012208700180e-02
4.365745931863784790e-03,3.010607557371258736e-03
3.968829661607742310e-02,7.126380689442157745e-03
1.772074401378631592e-02,1.873395964503288269e-02
9.924060665071010590e-03,-1.363350637257099152e-02
-1.810003654100000858e-03,-9.079776937142014503e-04
-1.869440823793411255e-02,1.278704847209155560e-03
-1.520056836307048798e-02,2.720097266137599945e-02
2.475886978209018707e-02,1.167743653059005737e-02
2.270162664353847504e-02,2.149541489779949188e-02
1.372689474374055862e-02,1.192571595311164856e-02
1.009204704314470291e-02,8.422826416790485382e-03
-1.410025451332330704e-02,-1.752868294715881348e-02
1.206192653626203537e-02,6.183864548802375793e-03
2.923527918756008148e-02,-4.186381772160530090e-02
4.875965532846748829e-04,-1.251329295337200165e-02
2.931746887043118477e-03,-1.567632518708705902e-02
4.925869405269622803e-02,-5.625405162572860718e-02
6.900663953274488449e-03,1.139504741877317429e-02
3.045493736863136292e-02,2.777100168168544769e-02
-2.334943227469921112e-02,-3.407116234302520752e-02
-3.528173314407467842e-03,7.243395317345857620e-03
4.571504518389701843e-02,-6.493109464645385742e-02
-2.259398065507411957e-02,-2.760764770209789276e-02
-8.255428634583950043e-03,-2.351075410842895508e-03
1.844849064946174622e-02,1.587067171931266785e-02
-1.925303973257541656e-02,4.670215770602226257e-02
1.110507640987634659e-02,-5.028260499238967896e-02
4.722508043050765991e-02,-5.575093254446983337e-02
1.353708561509847641e-02,1.098537165671586990e-02
-1.235357020050287247e-03,1.059311069548130035e-02
-1.593682356178760529e-02,-9.260059334337711334e-03
-7.575256749987602234e-03,-5.684339441359043121e-03
-1.277639530599117279e-02,2.186722680926322937e-02
2.085674181580543518e-02,-6.446267664432525635e-02
1.754843443632125854e-02,-7.175798993557691574e-03
9.406196768395602703e-04,4.801168106496334076e-03
5.525599420070648193e-02,-6.400249898433685303e-02
-1.857491210103034973e-02,2.080616541206836700e-02
8.393274038098752499e-04,4.998605698347091675e-03
7.457241881638765335e-04,2.386233396828174591e-02
-5.825009662657976151e-03,-2.622054517269134521e-02
5.830317363142967224e-02,-6.873849034309387207e-02
4.377661272883415222e-03,2.641871105879545212e-03
-6.081142649054527283e-02,3.266624733805656433e-02
6.160207092761993408e-02,-2.809886634349822998e-02
-2.520344406366348267e-02,3.416144847869873047e-02
1.528347004204988480e-02,1.358163077384233475e-02
-1.405603252351284027e-03,3.145991649944335222e-04
5.816222401335835457e-04,2.135220682248473167e-03
-7.512474432587623596e-03,-2.199720824137330055e-03
-2.576136495918035507e-03,-1.107909530401229858e-02
2.377883158624172211e-02,-2.701075002551078796e-02
-3.894926921930164099e-04,7.767584640532732010e-03
4.399209748953580856e-03,8.903422392904758453e-03
-4.414086416363716125e-02,5.900886282324790955e-02
1.098830718547105789e-02,1.148959249258041382e-02
-9.946058504283428192e-03,-2.384277619421482086e-02
2.647554688155651093e-02,-9.916766546666622162e-03
1.444794423878192902e-02,1.032397802919149399e-02
-2.237010374665260315e-02,-1.979818567633628845e-02
-2.147562243044376373e-02,1.112443581223487854e-02
-4.570113378576934338e-04,-1.916573615744709969e-03
-3.996293246746063232e-02,3.221351653337478638e-02
-3.096852218732237816e-03,4.653417039662599564e-03
1.135028619319200516e-02,1.062831003218889236e-02
-1.218380872160196304e-03,-6.255708634853363037e-03
-7.210672833025455475e-03,-1.382121071219444275e-02
4.298652522265911102e-03,-3.598016919568181038e-03
-1.041074632667005062e-03,2.220122143626213074e-02
-5.863574915565550327e-04,-1.115789171308279037e-03
-4.157366696745157242e-03,4.476913250982761383e-03
-6.827567238360643387e-03,1.638260483741760254e-02
-1.204978208988904953e-02,-1.562096551060676575e-02
-8.746454492211341858e-03,-1.823055930435657501e-02
9.604160673916339874e-03,7.622078061103820801e-03
-1.330221910029649734e-02,-2.592249400913715363e-02
1.066434942185878754e-02,2.754922723397612572e-03
-9.746276773512363434e-03,-1.213173661381006241e-02
7.168473675847053528e-03,-2.001944929361343384e-02
9.606693871319293976e-03,-1.556337252259254456e-02
7.484417408704757690e-02,-5.550962686538696289e-02
-3.491230309009552002e-02,-2.317902166396379471e-03
9.372284635901451111e-03,-1.091858465224504471e-02
4.620482400059700012e-02,-2.194621227681636810e-02
-1.786563312634825706e-03,5.244323518127202988e-03
1.358889974653720856e-02,3.030316717922687531e-02
-1.793849840760231018e-02,-1.799320802092552185e-02
-2.322557941079139709e-02,2.478780969977378845e-02
-4.282237030565738678e-03,-3.737151389941573143e-03
2.862202003598213196e-02,2.791335806250572205e-02
-2.645053900778293610e-02,-2.430621720850467682e-02
-1.759818010032176971e-02,-2.676763385534286499e-02
2.088030800223350525e-02,1.099292747676372528e-02
1.455670781433582306e-02,1.361428666859865189e-02
1.133625302463769913e-02,-2.293598838150501251e-02
-1.453531160950660706e-02,-4.189788829535245895e-03
-1.016881316900253296e-02,-1.461124233901500702e-02
1.583888567984104156e-02,1.335460226982831955e-02
7.272562361322343349e-04,6.216535810381174088e-03
1.448634918779134750e-02,1.096739806234836578e-02
-7.202784065157175064e-03,2.041075006127357483e-02
-1.698561944067478180e-02,-2.287339791655540466e-02
-2.106045559048652649e-02,-1.851454749703407288e-02
1.933045499026775360e-02,1.900278776884078979e-02
5.017492920160293579e-02,-9.172278642654418945e-02
-1.120879501104354858e-02,4.805680364370346069e-03
-8.853532373905181885e-03,1.360871456563472748e-02
-1.312409993261098862e-02,-1.823822781443595886e-02
7.790002971887588501e-03,2.130661858245730400e-03
5.079180467873811722e-03,6.418593693524599075e-03
-4.183059185743331909e-02,1.326967123895883560e-02
2.103835158050060272e-02,-1.512165926396846771e-02
1.163297798484563828e-03,-5.814951728098094463e-04
5.013323575258255005e-02,-8.440443873405456543e-02
7.823911495506763458e-03,-1.027193036861717701e-03
1.159983687102794647e-03,-1.325303036719560623e-02
1.576807349920272827e-02,-2.322969725355505943e-03
-1.113565987907350063e-03,2.432160638272762299e-02
6.362789776176214218e-03,1.855317875742912292e-02
-6.055444828234612942e-04,-3.892297390848398209e-03
-9.505037218332290649e-03,-1.149324513971805573e-02
-5.369337275624275208e-03,-6.164457648992538452e-03
1.196159888058900833e-02,2.609414048492908478e-03
6.083826883696019650e-04,-1.124785281717777252e-03
3.642800077795982361e-02,-4.162478726357221603e-03
3.397768735885620117e-02,-6.513379048556089401e-03
1.148699503391981125e-02,5.011917091906070709e-03
6.572541594505310059e-02,-6.861134618520736694e-02
-1.121812313795089722e-02,7.951958104968070984e-03
1.372209750115871429e-02,5.525166168808937073e-03
-2.024686150252819061e-02,-5.092389415949583054e-03
-2.158531919121742249e-02,4.904701933264732361e-02
2.968617016449570656e-03,3.340739384293556213e-02
-1.904415711760520935e-02,-1.877580024302005768e-02
-1.321817096322774887e-02,-7.609899621456861496e-04
1.416372973471879959e-02,-3.189794719219207764e-02
1.780675724148750305e-02,3.433394478633999825e-03
2.939613163471221924e-02,3.039741143584251404e-02
4.148802720010280609e-03,2.746419049799442291e-03
-1.297537796199321747e-02,-1.472332049161195755e-02
1.382901449687778950e-03,8.387244306504726410e-04
4.387702792882919312e-02,-7.486144546419382095e-03
2.986878680530935526e-04,2.889794064685702324e-03
2.612964017316699028e-03,1.354399509727954865e-02
-2.445052377879619598e-03,5.575052928179502487e-03
-3.297683782875537872e-03,-3.696864703670144081e-03
5.534514784812927246e-03,2.154893940314650536e-03
2.411700412631034851e-02,1.314437296241521835e-02
4.883153364062309265e-03,2.500206930562853813e-03
-2.690463885664939880e-02,-3.023080341517925262e-02
1.573251187801361084e-02,-1.912598684430122375e-02
-1.437753997743129730e-02,-1.986183598637580872e-02
9.062138199806213379e-02,-9.579612314701080322e-02
9.064414538443088531e-03,5.076956935226917267e-03
-1.564623415470123291e-02,1.099408138543367386e-02
-3.223943058401346207e-03,-8.137566968798637390e-03
2.322125434875488281e-02,2.108214609324932098e-02
2.147359773516654968e-02,2.201546728610992432e-02
7.829366251826286316e-03,-7.986959069967269897e-03
3.055538423359394073e-02,-5.271567404270172119e-02
-1.140240579843521118e-02,-1.013460941612720490e-02
1.165063213557004929e-02,2.234874665737152100e-02
5.305772181600332260e-03,-3.867688588798046112e-03
6.618506461381912231e-02,-1.134568750858306885e-01
5.199212208390235901e-02,-4.805890470743179321e-02
1.331023126840591431e-02,-1.049702987074851990e-02
-4.133769776672124863e-03,1.648056320846080780e-03
1.254448387771844864e-02,2.346859313547611237e-02
8.786548860371112823e-03,2.474137209355831146e-02
9.244708926416933537e-04,-2.869606949388980865e-03
-7.806434761732816696e-03,-3.013613633811473846e-03
2.114023081958293915e-02,1.936544291675090790e-02
3.319357335567474365e-02,-1.787475310266017914e-02
3.622696502134203911e-03,1.502123777754604816e-03
3.377906105015426874e-04,-1.028219610452651978e-02
-3.513064235448837280e-02,3.024223819375038147e-02
-7.710121106356382370e-03,-2.225222438573837280e-02
1.333978679031133652e-02,-1.122169476002454758e-02
-5.016668885946273804e-02,1.383661292493343353e-02
-2.573248639237135649e-04,-2.348134759813547134e-03
1.582850818522274494e-03,4.258907400071620941e-03
6.895568687468767166e-03,-4.154244437813758850e-03
2.420459641143679619e-03,6.073853000998497009e-03
5.377554334700107574e-03,9.049696847796440125e-03
-1.698186621069908142e-02,-8.174910210072994232e-03
-1.221908722072839737e-02,1.799998991191387177e-02
2.197892637923359871e-03,5.924024153500795364e-03
2.800869755446910858e-02,3.507291525602340698e-02
-1.467953342944383621e-02,6.793572753667831421e-02
1.295373309403657913e-02,9.011995978653430939e-03
4.638678510673344135e-04,9.452784433960914612e-04
-1.333787105977535248e-02,-9.148166514933109283e-03
9.316785261034965515e-03,8.130915462970733643e-03
-8.882410824298858643e-03,-1.183620002120733261e-02
1.211126102134585381e-03,-1.652622740948572755e-04
-8.583933115005493164e-03,-9.365034638904035091e-04
-4.639392718672752380e-03,-5.406209267675876617e-03
-5.298970639705657959e-02,3.366684541106224060e-02
1.849069725722074509e-03,7.827765075489878654e-04
-2.674240095075219870e-04,-5.404450464993715286e-03
-2.951836213469505310e-02,3.510665148496627808e-02
-2.963987179100513458e-02,3.563713282346725464e-02
-4.349238798022270203e-02,2.637801505625247955e-02
1.088497135788202286e-02,1.051791850477457047e-02
-1.161555852741003036e-02,-5.158877931535243988e-03
7.582097314298152924e-03,5.988351069390773773e-03
-2.157357335090637207e-02,1.727266609668731689e-02
4.551729559898376465e-02,-2.895760536193847656e-02
3.820101171731948853e-02,-4.133605211973190308e-02
-2.678098389878869057e-03,2.157087810337543488e-02
1.136374846100807190e-02,1.941902004182338715e-02
9.054876863956451416e-02,-6.720414012670516968e-02
-1.228615827858448029e-02,-1.113682612776756287e-02
-5.132457613945007324e-02,3.873267397284507751e-02
3.061209991574287415e-02,-4.680018872022628784e-02
1.240583020262420177e-03,-2.370021305978298187e-03
1.565562374889850616e-02,1.882196776568889618e-02
1.569597236812114716e-02,-2.934546396136283875e-02
-2.567647956311702728e-02,-6.120124366134405136e-03
1.417287252843379974e-02,1.290411036461591721e-02
3.532644594088196754e-03,1.947260345332324505e-03
-2.460821904242038727e-02,-2.567599155008792877e-02
9.548932430334389210e-04,1.136992312967777252e-02
-2.250702865421772003e-02,1.035810681059956551e-03
3.923585638403892517e-02,-8.750417828559875488e-02
2.760974224656820297e-03,8.344905450940132141e-03
-1.987712830305099487e-02,-1.884347945451736450e-02
5.027183890342712402e-02,-1.696038246154785156e-02
1.182214706204831600e-03,2.296971157193183899e-02
-1.090446487069129944e-02,2.124040015041828156e-02
-2.564276941120624542e-02,-1.794298738241195679e-02
3.208373859524726868e-02,2.237819693982601166e-02
9.661741554737091064e-03,5.804196000099182129e-03
4.363941843621432781e-04,-4.114389885216951370e-03
-4.763038083910942078e-02,3.137992694973945618e-02
-2.752184122800827026e-02,1.775931380689144135e-02
-1.355333020910620689e-03,1.740086241625249386e-03
-5.282221361994743347e-03,-4.379418212920427322e-03
-4.041764885187149048e-03,1.360280159860849380e-02
1.343917846679687500e-02,-3.398878127336502075e-02
-8.057434111833572388e-03,-7.443892303854227066e-03
2.391127869486808777e-03,3.798975376412272453e-03
-7.163550239056348801e-03,2.122509852051734924e-02
3.152302652597427368e-02,2.153157442808151245e-02
1.202226430177688599e-02,-8.219376206398010254e-03
-3.056659922003746033e-02,4.070332646369934082e-02
-1.104875933378934860e-02,-1.377239450812339783e-02
-5.885990336537361145e-03,-2.946225227788090706e-03
5.277217552065849304e-02,-3.931287676095962524e-02
7.346873730421066284e-02,-2.982493303716182709e-02
-6.677838508039712906e-03,-8.520408533513545990e-03
-1.641487143933773041e-02,1.369410473853349686e-02
-3.537293523550033569e-02,9.087757207453250885e-03
2.583930036053061485e-03,-3.116760402917861938e-03
2.942844480276107788e-02,-2.677944675087928772e-02
-7.093223929405212402e-02,3.218079730868339539e-02
-4.734284244477748871e-03,-3.212999086827039719e-03
-1.847214763984084129e-03,1.646840013563632965e-02
-1.583522185683250427e-03,7.691524922847747803e-03
-1.032263319939374924e-02,-2.702010981738567352e-02
-2.831038087606430054e-02,3.922451753169298172e-03
-4.973335657268762589e-03,-2.090488001704216003e-02
3.330149501562118530e-02,-5.597229301929473877e-02
4.668106883764266968e-02,-5.548956617712974548e-02
6.472498923540115356e-02,-6.411313265562057495e-02
1.720361970365047455e-02,2.467464655637741089e-02
2.383875288069248199e-02,2.626086026430130005e-02
-2.029832080006599426e-02,-1.953705213963985443e-02
5.475967749953269958e-02,-1.087825372815132141e-02
9.512388147413730621e-03,-1.094611827284097672e-02
-1.071246340870857239e-02,-2.755097858607769012e-02
6.431882269680500031e-03,-3.359256684780120850e-02
-1.846395991742610931e-02,-7.182700093835592270e-03
4.350192379206418991e-03,1.521957013756036758e-02
-4.181187599897384644e-02,4.487312585115432739e-02
2.920620143413543701e-02,-2.697806805372238159e-02
1.620295271277427673e-02,-1.007669232785701752e-02
-2.283134311437606812e-02,-4.412979353219270706e-03
2.363304840400815010e-03,3.989216405898332596e-03
-1.675995066761970520e-02,5.824454873800277710e-02
-1.860983087681233883e-03,-1.873267069458961487e-02
-1.223707571625709534e-02,-5.566979758441448212e-03
8.153255283832550049e-02,-7.517087459564208984e-02
1.231612358242273331e-02,1.148277986794710159e-02
-2.893252670764923096e-02,-2.388583868741989136e-02
-1.828008145093917847e-02,-2.557537332177162170e-02
-4.890039935708045959e-02,4.336833208799362183e-02
-1.885759644210338593e-02,-1.468940079212188721e-02
-1.132230740040540695e-02,-1.185547746717929840e-02
-3.894367069005966187e-02,3.238756442442536354e-03
1.511905435472726822e-02,1.361544523388147354e-02
-2.031298354268074036e-02,-2.444291487336158752e-02
-9.513907134532928467e-03,6.362233543768525124e-04
2.622208558022975922e-02,2.438113652169704437e-02
-6.585211027413606644e-03,6.368503905832767487e-03
7.125713862478733063e-03,1.137270685285329819e-02
1.192354131489992142e-02,4.448427353054285049e-03
-1.650770939886569977e-02,-8.921376429498195648e-03
1.475029811263084412e-02,-6.174232065677642822e-02
-1.480269618332386017e-02,8.860428351908922195e-04
4.066791757941246033e-02,-7.314138114452362061e-02
-9.286666288971900940e-03,-1.471707504242658615e-02
7.688982412219047546e-03,2.694025449454784393e-02
-1.138680335134267807e-02,-9.987078607082366943e-03
1.515723881311714649e-03,8.143199607729911804e-03
-5.107997450977563858e-03,-1.252175122499465942e-02
-2.350532449781894684e-02,1.830549724400043488e-02
2.629863843321800232e-02,2.645816840231418610e-02
2.618715539574623108e-02,-3.313682042062282562e-03
-7.016064599156379700e-03,-5.982486065477132797e-03
2.497028186917304993e-02,2.562740817666053772e-02
5.759081337600946426e-03,-8.066358976066112518e-03
-2.374960295855998993e-02,3.508394584059715271e-03
-1.279311347752809525e-02,-1.207479462027549744e-02
1.703626476228237152e-02,-9.273644536733627319e-03
-1.049546990543603897e-02,-2.203595079481601715e-02
-1.028910651803016663e-02,2.166048809885978699e-02
-3.643446788191795349e-02,1.016740128397941589e-02
7.033235859125852585e-03,7.779688108712434769e-03
-5.849276203662157059e-03,9.384073317050933838e-03
-1.819133386015892029e-02,2.692509815096855164e-02
-9.990800172090530396e-03,-1.056061405688524246e-02
-3.488880023360252380e-02,1.631686091423034668e-02
1.232757233083248138e-03,2.052020514383912086e-03
1.738631166517734528e-03,-4.587836563587188721e-03
-9.105663746595382690e-03,-1.230114419013261795e-02
-1.567742787301540375e-02,6.954759359359741211e-02
6.694293767213821411e-02,-8.516175299882888794e-02
-1.951275020837783813e-02,-2.080320194363594055e-02
5.402355454862117767e-03,2.769410237669944763e-02
1.516318228095769882e-02,-1.329412497580051422e-02
-1.567708514630794525e-02,-1.438660919666290283e-02
4.117991402745246887e-02,-5.736845359206199646e-02
-3.505336493253707886e-02,4.937405139207839966e-02
-2.317112125456333160e-02,9.422839619219303131e-03
-3.215578570961952209e-02,2.332688495516777039e-02
9.598411619663238525e-03,-8.009236305952072144e-03
-2.220980264246463776e-02,3.045767359435558319e-02
8.092210628092288971e-03,-7.218788843601942062e-03
1.644353382289409637e-02,1.524775940924882889e-02
5.997395608574151993e-03,5.834816023707389832e-02
-1.944119483232498169e-02,2.524198731407523155e-03
2.383914217352867126e-02,1.360289566218852997e-02
3.890096396207809448e-02,-5.516091734170913696e-02
-4.968002904206514359e-03,-6.575287785381078720e-03
-2.798902802169322968e-02,4.713014140725135803e-02
2.125056833028793335e-02,-6.336434930562973022e-02
8.162263035774230957e-02,-8.156160265207290649e-02
-1.301902346312999725e-02,7.357452530413866043e-03
-5.990052130073308945e-03,-7.940057665109634399e-03
-4.116441588848829269e-03,-1.215406134724617004e-02
1.227241083979606628e-01,-1.364848911762237549e-01
1.162003260105848312e-02,-2.003991231322288513e-02
-9.150736965239048004e-03,2.809286117553710938e-02
8.125972002744674683e-02,-7.127797603607177734e-02
3.604946890845894814e-03,2.520591253414750099e-03
-1.780079677700996399e-02,-1.767180860042572021e-02
1.326148747466504574e-03,2.793925115838646889e-03
1.011966075748205185e-02,-1.592014357447624207e-02
-9.715300053358078003e-03,-9.954583831131458282e-03
-6.946059409528970718e-03,3.412561118602752686e-02
1.079066749662160873e-02,1.670989877311512828e-04
3.259081020951271057e-02,-2.713932469487190247e-02
4.095955938100814819e-02,-5.023751873522996902e-03
1.503672916442155838e-02,2.147311344742774963e-02
-4.975194111466407776e-03,-6.392796523869037628e-03
-1.174840610474348068e-02,-1.015950832515954971e-02
1.077246572822332382e-02,-1.350509468466043472e-02
-8.877584710717201233e-03,-4.579676780849695206e-03
-4.745784215629100800e-03,1.984392991289496422e-03
6.518702488392591476e-03,-3.623098880052566528e-02
-5.104724317789077759e-02,3.607759624719619751e-02
-2.334382571280002594e-02,-2.482510171830654144e-02
3.774866461753845215e-02,-5.073026567697525024e-02
3.535621566697955132e-03,1.095923129469156265e-02
-6.218141410499811172e-03,4.095270857214927673e-02
4.067210014909505844e-03,7.073346525430679321e-03
2.535391040146350861e-02,1.171185635030269623e-02
1.926615647971630096e-02,1.528777740895748138e-02
-1.218268088996410370e-02,-2.191831357777118683e-02
-2.391709014773368835e-02,-1.601207442581653595e-02
5.901244655251502991e-02,-4.710334539413452148e-02
7.487146183848381042e-03,-1.252656523138284683e-02
-1.923558674752712250e-02,-8.368551731109619141e-03
7.309476495720446110e-04,-7.252762559801340103e-03
1.341191586107015610e-03,4.244799260050058365e-03
-2.549974014982581139e-03,-3.644275944679975510e-03
1.890796795487403870e-02,2.057749219238758087e-02
-3.135548904538154602e-02,2.282709628343582153e-02
-6.138245953479781747e-05,-8.671096526086330414e-03
-1.727493479847908020e-03,-5.798051133751869202e-03
2.000764012336730957e-02,-1.313595380634069443e-02
-1.300534605979919434e-02,2.847843617200851440e-02
8.888185024261474609e-03,4.794961772859096527e-03
-1.731065474450588226e-02,6.633948069065809250e-03
1.966710574924945831e-02,-3.925385698676109314e-02
9.827312082052230835e-02,-5.928004905581474304e-02
1.745231635868549347e-02,-3.529256582260131836e-02
8.265668898820877075e-02,-6.895028799772262573e-02
-3.520298749208450317e-03,4.828688688576221466e-03
2.270520292222499847e-02,2.610294148325920105e-02
5.702054128050804138e-03,3.226103261113166809e-02
2.667699195444583893e-02,2.768071182072162628e-02
1.166621502488851547e-02,1.138940732926130295e-02
2.814449742436408997e-02,2.053328044712543488e-02
9.171039611101150513e-02,-7.816551625728607178e-02
-1.697265543043613434e-02,-1.286036428064107895e-02
-2.123515307903289795e-02,-9.448837488889694214e-03
4.858500324189662933e-03,8.273126557469367981e-03
1.192029844969511032e-02,-2.543433196842670441e-02
-1.231566350907087326e-02,-2.008158899843692780e-02
-3.327484801411628723e-02,3.717320784926414490e-02
-1.549901161342859268e-02,-8.177777752280235291e-03
4.432969726622104645e-04,-1.026575569994747639e-03
-3.095658263191580772e-03,-3.220835328102111816e-02
2.341722324490547180e-02,2.197058312594890594e-02
2.423099987208843231e-02,-1.656278222799301147e-02
8.789986371994018555e-03,-7.661155890673398972e-03
1.226488780230283737e-02,-1.905046083265915513e-04
2.120549231767654419e-02,2.734067291021347046e-02
8.767241612076759338e-03,-2.447756193578243256e-02
-1.874318905174732208e-02,2.194410189986228943e-02
-8.231299929320812225e-03,-6.779314950108528137e-03
-3.731502918526530266e-03,3.015866270288825035e-03
-1.340488903224468231e-02,-1.244137808680534363e-02
7.042124401777982712e-03,-6.967704277485609055e-03
-6.648425012826919556e-03,1.220621197717264295e-04
1.038591098040342331e-02,8.831635117530822754e-03
7.434916496276855469e-02,-1.050285473465919495e-01
-1.587471365928649902e-02,-2.082088217139244080e-02
-1.496312022209167480e-02,-1.258778851479291916e-02
-3.895655274391174316e-03,-8.571873418986797333e-03
2.568291034549474716e-03,6.378826219588518143e-03
-1.001405529677867889e-02,-1.027234271168708801e-02
-5.012901034206151962e-03,-8.460701443254947662e-03
2.014940371736884117e-03,3.130229655653238297e-03
3.162762895226478577e-02,2.629307284951210022e-02
4.454713687300682068e-02,-4.009939730167388916e-02
7.324554957449436188e-03,4.541648924350738525e-02
-1.697204820811748505e-02,-2.019433118402957916e-02
-2.923306822776794434e-02,-6.295341532677412033e-03
-1.114483736455440521e-02,-1.018665265291929245e-02
-8.173277601599693298e-03,1.194500015117228031e-03
2.718403236940503120e-03,-2.228501997888088226e-02
-5.530565977096557617e-03,-3.128066193312406540e-03
4.380095750093460083e-03,1.866775006055831909e-02
1.037779147736728191e-03,-1.089239143766462803e-03
1.661371998488903046e-02,2.845293469727039337e-02
9.330413304269313812e-03,1.176332030445337296e-02
-3.082857280969619751e-02,1.881204731762409210e-02
-1.634261198341846466e-02,-1.059345342218875885e-02
-4.421760677359998226e-04,1.667533814907073975e-02
-5.803403444588184357e-03,-4.983691498637199402e-03
6.451953202486038208e-03,6.510656327009201050e-03
2.664446085691452026e-02,-1.732085458934307098e-02
5.912337452173233032e-03,5.385357886552810669e-03
8.628544397652149200e-03,9.304563514888286591e-03
1.384870614856481552e-02,9.755570441484451294e-03
-1.441894751042127609e-02,-1.111040730029344559e-02
-1.450803875923156738e-02,1.725475303828716278e-02
-5.741805303841829300e-03,-2.857343666255474091e-02
-6.374296266585588455e-03,4.853536840528249741e-03
3.612770000472664833e-03,5.639424547553062439e-03
2.067927271127700806e-02,1.499801781028509140e-02
-2.371332608163356781e-02,-1.984541304409503937e-02
5.473865661770105362e-03,1.815194450318813324e-02
4.748591687530279160e-03,2.587589202448725700e-03
-2.524779178202152252e-02,-3.529338538646697998e-02
1.577712362632155418e-03,1.587737351655960083e-02
-1.064230594784021378e-02,-8.678395301103591919e-03
-1.708467118442058563e-02,-1.906904391944408417e-02
-1.465879101306200027e-02,-1.707166060805320740e-02
-1.140339765697717667e-03,-3.854867769405245781e-03
-1.448854245245456696e-02,-1.475031860172748566e-02
-1.117964420700445771e-04,-4.650375340133905411e-03
-2.076818235218524933e-02,-2.262620069086551666e-02
5.379850789904594421e-02,-2.649832889437675476e-02
2.091087214648723602e-02,-7.346577197313308716e-02
2.012194879353046417e-02,1.711613871157169342e-02
8.513789623975753784e-03,-3.631075844168663025e-02
2.685916237533092499e-02,-1.648862659931182861e-02
3.829170390963554382e-02,-2.430722303688526154e-02
-1.441224711015820503e-03,-3.130669705569744110e-03
-6.246470147743821144e-04,-6.575679872184991837e-03
8.752475492656230927e-03,4.237281531095504761e-02
3.247886523604393005e-02,-2.130598574876785278e-02
-3.911351319402456284e-03,3.004793543368577957e-03
-6.322041153907775879e-03,1.040697284042835236e-02
5.969242751598358154e-02,-4.084682464599609375e-02
-8.755653980188071728e-04,9.584746439941227436e-04
7.595448940992355347e-02,-4.574739187955856323e-02
2.074443921446800232e-02,1.890219561755657196e-02
2.708324417471885681e-02,2.072110399603843689e-02
2.273322455585002899e-02,-1.070454251021146774e-03
1.568966358900070190e-02,-6.961269769817590714e-03
2.902621962130069733e-02,6.097662262618541718e-03
4.625636339187622070e-02,-4.503476992249488831e-02
-4.903013259172439575e-02,2.749442309141159058e-02
-1.061569247394800186e-02,-1.309643033891916275e-02
-2.098491415381431580e-02,1.535615324974060059e-02
-2.114683575928211212e-02,4.310304298996925354e-02
-1.467953622341156006e-02,-1.537225395441055298e-02
1.889583189040422440e-03,1.409691199660301208e-02
-6.222639698535203934e-03,-5.592965520918369293e-03
-4.473074339330196381e-03,-8.324436843395233154e-03
-1.563644781708717346e-02,-1.126323360949754715e-02
1.381551008671522141e-02,2.195980586111545563e-02
6.888545583933591843e-03,1.622618548572063446e-02
-1.674170233309268951e-02,-1.593419909477233887e-02
9.167181327939033508e-03,-4.134386032819747925e-02
-3.139511868357658386e-02,2.516380278393626213e-03
2.273783646523952484e-02,2.144451811909675598e-02
1.390721462666988373e-02,-2.374680899083614349e-02
-6.382993888109922409e-03,-1.119654811918735504e-02
6.548162549734115601e-02,-3.825907781720161438e-02
-1.824236102402210236e-02,-1.536429859697818756e-02
4.390385001897811890e-03,-1.299416646361351013e-03
6.264506839215755463e-03,-2.572983689606189728e-02
1.300492323935031891e-02,-1.139702368527650833e-02
3.384387493133544922e-02,-2.063549496233463287e-02
-4.100256785750389099e-02,4.021574929356575012e-02
-2.409954322502017021e-03,4.484982346184551716e-04
-7.204527501016855240e-03,-4.778891452588140965e-04
8.631439879536628723e-03,1.120997034013271332e-02
3.007782436907291412e-02,2.125520259141921997e-02
5.738567560911178589e-02,-7.212464511394500732e-02
1.355023682117462158e-02,1.261181198060512543e-02
-2.638512477278709412e-02,7.280532736331224442e-03
-3.211545199155807495e-02,-2.056518942117691040e-02
1.228213962167501450e-02,-1.810196228325366974e-02
6.438844837248325348e-03,2.589843049645423889e-02
9.457214764552190900e-05,-7.489449810236692429e-03
-4.468879196792840958e-03,-9.128420613706111908e-03
1.250745169818401337e-02,9.521704167127609253e-03
-5.110791418701410294e-03,-1.932856440544128418e-02
-2.623072080314159393e-02,-2.765930444002151489e-02
3.191267326474189758e-02,2.455602586269378662e-02
-3.857510746456682682e-04,4.243080969899892807e-03
-1.816647499799728394e-02,-1.801757514476776123e-02
2.433781325817108154e-02,1.486304216086864471e-02
-4.944058507680892944e-02,4.974556714296340942e-02
3.985180985182523727e-03,1.550860702991485596e-02
8.652181364595890045e-03,1.427682302892208099e-02
-8.298488333821296692e-03,-1.073110289871692657e-02
1.291487715207040310e-03,7.271455135196447372e-03
1.438001077622175217e-02,2.510697208344936371e-02
5.856459960341453552e-03,7.218350656330585480e-03
-2.722455537877976894e-04,1.162872067652642727e-04
-3.273970913141965866e-03,-7.453171536326408386e-03
1.656005904078483582e-02,1.675145700573921204e-02
2.167705073952674866e-02,2.236272767186164856e-02
6.793219130486249924e-03,-2.550997538492083549e-03
4.671374801546335220e-03,2.340823970735073090e-02
-3.346108272671699524e-02,1.575131155550479889e-02
-1.822323072701692581e-03,4.132540896534919739e-03
-3.013015910983085632e-02,-2.915060333907604218e-02
5.550538748502731323e-02,-5.042013525962829590e-02
-1.065321173518896103e-02,7.582448888570070267e-03
7.806035224348306656e-03,-4.611016716808080673e-03
-1.043429505079984665e-02,4.985639452934265137e-02
-3.280924633145332336e-02,4.928961768746376038e-02
-4.959743935614824295e-03,2.436268143355846405e-03
4.786794073879718781e-03,7.941368967294692993e-03
-1.869553700089454651e-02,-1.810131222009658813e-02
-2.067978121340274811e-02,1.649426110088825226e-02
1.560412929393351078e-03,2.367908880114555359e-02
-4.560446366667747498e-02,7.296723872423171997e-02
-2.970468811690807343e-02,5.350849032402038574e-02
9.507749229669570923e-03,-3.078141063451766968e-02
2.762579359114170074e-03,-2.003488317131996155e-02
2.450825087726116180e-02,1.999839581549167633e-02
5.160695873200893402e-04,-5.099966656416654587e-03
9.319654665887355804e-03,7.584484294056892395e-03
7.532806135714054108e-03,-2.624324895441532135e-02
3.236969001591205597e-03,5.570488050580024719e-03
4.904947243630886078e-03,-1.124618668109178543e-02
2.339100278913974762e-02,2.264994196593761444e-02
4.886151291429996490e-03,1.104547176510095596e-02
4.686356056481599808e-03,5.955040454864501953e-03
2.570230700075626373e-02,5.970288766548037529e-04
-3.379094600677490234e-02,2.632083185017108917e-02
-2.598423883318901062e-02,1.185585465282201767e-02
1.077015884220600128e-02,1.013254933059215546e-02
1.648358441889286041e-02,-4.724606499075889587e-02
-7.041767239570617676e-03,4.038499668240547180e-03
5.850729346275329590e-02,-4.012311995029449463e-02
9.261553175747394562e-03,8.844395168125629425e-03
5.200252681970596313e-02,-2.819751575589179993e-02
-6.203911732882261276e-03,1.212419290095567703e-02
-2.800641022622585297e-02,-1.003281213343143463e-02
-6.281177978962659836e-03,-7.200986612588167191e-03
7.858719676733016968e-03,-9.137298184214159846e-05
-2.297539450228214264e-02,2.089568041265010834e-02
1.383809372782707214e-02,2.969477325677871704e-03
5.038909614086151123e-02,-7.382199168205261230e-02
6.773119326680898666e-03,5.692447666660882533e-05
2.170184999704360962e-02,1.398148015141487122e-02
-1.212054397910833359e-02,1.374259125441312790e-02
3.109993599355220795e-02,-7.102252542972564697e-02
-1.240709237754344940e-02,-1.608447171747684479e-02
5.402936949394643307e-04,1.185181085020303726e-02
1.348177064210176468e-02,1.386112067848443985e-02
-2.848644927144050598e-02,7.058674003928899765e-03
4.006833955645561218e-02,2.414946816861629486e-02
4.784387722611427307e-02,-3.182244300842285156e-02
1.458553504198789597e-02,-3.670651465654373169e-02
-2.239472931250929832e-03,-1.445517968386411667e-02
2.204656042158603668e-02,2.975877374410629272e-02
-6.729813758283853531e-03,1.996081694960594177e-02
5.498719401657581329e-03,1.180544216185808182e-02
-1.101648528128862381e-02,-1.893478678539395332e-03
1.320552080869674683e-02,1.163111068308353424e-02
-1.372807286679744720e-02,-1.902143098413944244e-02
3.157585114240646362e-02,-6.169635802507400513e-02
6.844237912446260452e-03,-2.030602889135479927e-03
3.527024760842323303e-03,6.741175893694162369e-04
1.445178687572479248e-02,-1.274168491363525391e-02
-1.681520231068134308e-02,2.299729548394680023e-02
-1.149651873856782913e-02,-9.061969816684722900e-03
-1.682426221668720245e-02,4.215453285723924637e-03
-1.243168953806161880e-02,-1.747020520269870758e-02
-4.532256629317998886e-03,-5.938868038356304169e-03
3.008337691426277161e-02,-1.023666374385356903e-02
1.704777777194976807e-02,1.532151084393262863e-02
1.324401050806045532e-02,2.271438762545585632e-02
-7.783132605254650116e-03,-7.502920459955930710e-03
5.046322569251060486e-02,-3.667556494474411011e-02
1.957314275205135345e-02,1.090198196470737457e-02
3.317444026470184326e-02,-1.715092360973358154e-02
-2.045891992747783661e-02,1.086027640849351883e-02
-7.633639033883810043e-03,-2.651858702301979065e-02
1.020497176796197891e-02,6.576354149729013443e-03
-1.603086665272712708e-02,4.348045215010643005e-02
9.964145720005035400e-04,9.580657817423343658e-03
-1.053173188120126724e-02,-1.091308146715164185e-02
-3.845851402729749680e-03,4.581767643685452640e-05
8.977846242487430573e-03,2.749987412244081497e-03
7.280980795621871948e-02,-3.248400613665580750e-02
-4.242956638336181641e-02,4.546892642974853516e-02
1.293225027620792389e-02,-5.549143068492412567e-03
-1.495902799069881439e-02,-1.410472765564918518e-02
2.043626829981803894e-02,2.270115166902542114e-02
-1.351503748446702957e-02,8.524009026587009430e-03
-2.494988031685352325e-02,1.675504632294178009e-02
-2.907098084688186646e-02,1.015223376452922821e-02
1.632426492869853973e-02,-7.076496724039316177e-03
1.832518726587295532e-02,3.131947712972760201e-03
5.628696456551551819e-02,-9.803064167499542236e-02
-3.277805820107460022e-02,-1.960604824125766754e-02
1.082531269639730453e-02,1.240746583789587021e-02
3.235550597310066223e-02,-9.281280636787414551e-02
5.126941017806529999e-03,6.875265389680862427e-03
-3.110668156296014786e-03,3.995342180132865906e-03
2.547424286603927612e-03,1.000117603689432144e-02
2.331879921257495880e-03,9.402287541888654232e-04
-4.670770373195409775e-03,5.858403164893388748e-03
1.682739821262657642e-03,2.319158287718892097e-03
-5.023420602083206177e-02,2.712800726294517517e-02
2.015805803239345551e-03,1.520839170552790165e-03
-1.475737802684307098e-02,-9.709227830171585083e-03
1.306793838739395142e-02,1.780315488576889038e-02
2.010876126587390900e-02,2.041845954954624176e-02
-2.709628455340862274e-02,-3.403831645846366882e-02
3.383884904906153679e-03,5.934739019721746445e-03
-4.733407869935035706e-03,-6.230445113033056259e-03
-3.424757625907659531e-03,1.486283959820866585e-03
-2.641987055540084839e-02,1.583473174832761288e-03
3.213377296924591064e-02,6.670582806691527367e-04
2.517323940992355347e-02,2.283323369920253754e-02
1.483456045389175415e-02,1.833852753043174744e-02
9.385799057781696320e-03,1.207054313272237778e-02
5.902769509702920914e-03,-3.850918961688876152e-03
6.460013799369335175e-03,1.279390882700681686e-02
-2.279196307063102722e-02,-2.020346000790596008e-02
-3.370175370946526527e-03,-2.582926535978913307e-03
4.148280993103981018e-02,-4.282262176275253296e-02
1.324655395001173019e-02,-1.324941869825124741e-02
1.120282057672739029e-02,1.373397465795278549e-02
-2.022667042911052704e-02,-5.227920599281787872e-03
-2.092081122100353241e-02,-2.187220938503742218e-02
5.055838450789451599e-02,-5.289223045110702515e-02
3.157081454992294312e-02,1.965120621025562286e-02
-3.875832632184028625e-02,1.326392777264118195e-02
2.582714334130287170e-02,-9.843041189014911652e-03
1.952964439988136292e-02,1.390346232801675797e-02
2.961271209642291069e-03,-2.477832324802875519e-02
1.059412583708763123e-02,1.887229830026626587e-02
1.062140613794326782e-02,-4.372459277510643005e-02
5.693059414625167847e-03,9.340740740299224854e-03
-4.064366687089204788e-03,3.128850366920232773e-04
-8.827282115817070007e-03,-1.039688382297754288e-02
3.654907224699854851e-03,2.849163301289081573e-02
-1.013839989900588989e-02,-6.008396390825510025e-03
3.064100071787834167e-02,-3.747124224901199341e-02
8.946765214204788208e-03,1.113207731395959854e-02
8.325631730258464813e-03,-8.962002582848072052e-03
4.223458468914031982e-02,-2.370036393404006958e-02
8.131541311740875244e-03,1.458198670297861099e-02
-1.827482506632804871e-02,-9.565259329974651337e-03
-5.043403059244155884e-02,4.280299693346023560e-02
2.392832934856414795e-02,3.297701478004455566e-02
1.416135579347610474e-03,-2.903435006737709045e-02
2.324939938262104988e-03,-1.356828259304165840e-03
8.995228260755538940e-02,-7.360056042671203613e-02
2.064071968197822571e-02,-1.790211535990238190e-02
-6.071608513593673706e-03,-1.343088876456022263e-02
-1.280998904258012772e-02,-9.628706611692905426e-03
1.217356696724891663e-02,7.730780635029077530e-03
3.546782582998275757e-02,-8.959417231380939484e-03
2.746584825217723846e-02,-7.378438021987676620e-03
-3.678283421322703362e-03,1.763713546097278595e-03
6.948931608349084854e-03,2.053878828883171082e-02
4.305214807391166687e-02,-6.336995959281921387e-02
-1.602888293564319611e-02,-3.520642966032028198e-02
-9.414732456207275391e-03,-6.811346393078565598e-04
-2.202635398134589195e-03,2.339052595198154449e-02
-2.789238002151250839e-03,1.844789832830429077e-02
-1.973120681941509247e-02,-4.238948691636323929e-03
-1.131085306406021118e-02,-3.010486252605915070e-02
-2.400467172265052795e-03,8.243612013757228851e-03
3.615035116672515869e-02,-4.240102320909500122e-02
5.904407054185867310e-02,-8.215740323066711426e-02
-4.547107499092817307e-03,4.108920693397521973e-02
4.711599089205265045e-03,-1.563663012348115444e-03
-6.008571945130825043e-03,2.502280753105878830e-03
1.698379591107368469e-02,-1.843844167888164520e-02
-1.488720718771219254e-02,6.063776090741157532e-03
1.535082142800092697e-02,-7.124530524015426636e-02
-4.169080872088670731e-03,-5.925453267991542816e-03
1.507786754518747330e-02,-3.306203871034085751e-04
-5.647682119160890579e-04,6.697221542708575726e-04
-1.229866035282611847e-02,-3.000213392078876495e-02
-2.716782130300998688e-02,-2.843971364200115204e-02
1.469940505921840668e-02,2.166030928492546082e-02
5.733089055866003036e-03,6.969313602894544601e-03
6.112036760896444321e-03,-2.456162311136722565e-02
-2.125119790434837341e-02,-2.497217245399951935e-02
-5.845577470608986914e-05,-3.041749121621251106e-03
3.618816286325454712e-02,-5.588456243276596069e-02
-9.285248816013336182e-04,-4.374959971755743027e-03
2.113921567797660828e-02,2.399471960961818695e-02
-8.926100417738780379e-05,-2.899747341871261597e-04
2.680156752467155457e-02,-3.113560145720839500e-03
7.159644365310668945e-02,-5.759838968515396118e-02
7.881032302975654602e-03,5.321578588336706161e-03
1.968116872012615204e-02,1.712508313357830048e-02
6.871769204735755920e-03,5.357845220714807510e-03
-1.198365585878491402e-03,-4.981481470167636871e-03
5.324581172317266464e-03,2.508490812033414841e-03
1.862399466335773468e-02,8.107176050543785095e-03
-7.728474680334329605e-03,-8.750358596444129944e-03
9.317597723565995693e-04,-1.851129200076684356e-04
-4.832013044506311417e-03,7.201309781521558762e-03
-1.015631295740604401e-02,1.808421127498149872e-02
-5.735214799642562866e-03,-6.795383058488368988e-03
-1.834141090512275696e-02,8.037428371608257294e-03
-6.295884028077125549e-03,4.987775348126888275e-03
4.940913990139961243e-02,-4.522182419896125793e-02
-8.922384120523929596e-03,6.006159819662570953e-04
1.538106892257928848e-02,1.792114600539207458e-02
-2.534960582852363586e-02,-2.528793178498744965e-02
6.621365901082754135e-03,3.742999164387583733e-03
-3.225548937916755676e-02,-2.853907458484172821e-02
-6.682883482426404953e-03,-8.820135146379470825e-03
1.622921787202358246e-02,1.380695309489965439e-02
-1.677007786929607391e-02,4.886592738330364227e-03
1.448553241789340973e-02,4.645683802664279938e-03
1.853670226410031319e-03,-2.573807351291179657e-02
7.525201886892318726e-03,6.462411489337682724e-03
-2.855575177818536758e-03,2.481932751834392548e-03
1.259084045886993408e-02,8.604582399129867554e-03
-4.872663412243127823e-03,-7.723134476691484451e-03
5.114547675475478172e-04,-1.588051381986588240e-04
-6.962023209780454636e-03,-6.236959248781204224e-03
1.171207986772060394e-02,8.645940572023391724e-03
9.358050301671028137e-03,4.398941062390804291e-03
4.359056800603866577e-02,-4.489761963486671448e-02
8.871001191437244415e-03,1.641521416604518890e-02
5.513601936399936676e-04,8.699613623321056366e-03
-1.643053442239761353e-02,5.096524581313133240e-02
2.062512934207916260e-02,1.994965225458145142e-02
-2.243098616600036621e-02,-4.099472891539335251e-03
-1.053940039128065109e-03,-4.783142358064651489e-03
-1.871379092335700989e-02,-2.680798806250095367e-02
-7.514026015996932983e-03,3.533798828721046448e-02
2.855223044753074646e-02,2.101422054693102837e-03
1.746702007949352264e-02,-1.869597472250461578e-02
-7.655442692339420319e-03,-6.392412818968296051e-03
4.589875042438507080e-02,-3.078390844166278839e-02
1.930912211537361145e-02,1.521729398518800735e-03
6.665389053523540497e-03,8.751738816499710083e-03
2.442135103046894073e-02,1.928577199578285217e-02
-9.724061004817485809e-03,1.271067652851343155e-02
-2.168390713632106781e-02,2.062692493200302124e-02
2.590150199830532074e-02,6.734420545399188995e-03
-1.714721322059631348e-02,-1.672677136957645416e-02
5.206621252000331879e-03,4.504361189901828766e-03
4.739873856306076050e-02,-4.192699864506721497e-02
2.947860769927501678e-02,-4.545903205871582031e-02
-7.502179127186536789e-03,-3.410512208938598633e-02
3.063667938113212585e-02,3.249423950910568237e-02
-5.144140217453241348e-03,-6.877128500491380692e-03
2.317706122994422913e-02,1.316628977656364441e-02
8.408907800912857056e-03,1.960579073056578636e-03
5.843817256391048431e-03,7.453862112015485764e-03
-3.033010475337505341e-02,-9.330019354820251465e-03
1.373585686087608337e-02,1.315184216946363449e-02
-7.235114462673664093e-03,2.300039678812026978e-02
5.809675902128219604e-02,-6.388536840677261353e-02
8.511057496070861816e-02,-6.359311938285827637e-02
1.650371216237545013e-02,-4.652515798807144165e-02
1.261947676539421082e-02,1.522335410118103027e-02
4.892613738775253296e-02,-6.678309291601181030e-02
1.939832977950572968e-02,1.592662185430526733e-02
1.849447377026081085e-02,-7.484973873943090439e-03
1.915896870195865631e-02,2.774189924821257591e-03
-1.562664657831192017e-02,-1.875633560121059418e-02
1.936640217900276184e-02,4.666317719966173172e-03
1.894184388220310211e-02,5.452234297990798950e-03
-9.716743603348731995e-03,-1.231077872216701508e-02
-1.338387653231620789e-02,-1.173179689794778824e-02
2.722812630236148834e-02,-1.325199566781520844e-02
1.816238276660442352e-02,2.978260861709713936e-03
-8.075595833361148834e-03,-7.151907309889793396e-03
7.385684177279472351e-03,-1.149119250476360321e-02
-3.059535846114158630e-02,2.498264051973819733e-02
-6.799217313528060913e-02,9.810024639591574669e-04
7.334664463996887207e-02,-5.626475438475608826e-02
-9.279170073568820953e-03,2.561282599344849586e-07
1.376219559460878372e-02,1.831249147653579712e-02
1.307639107108116150e-02,1.274711079895496368e-02
-1.642158254981040955e-02,-9.456221945583820343e-03
7.693508267402648926e-02,-2.053909748792648315e-02
-4.880882427096366882e-02,5.050559341907501221e-02
3.050573542714118958e-02,1.596308127045631409e-02
1.504637580364942551e-02,-1.609246432781219482e-02
7.875689119100570679e-02,-5.436365306377410889e-02
4.942332580685615540e-02,-7.898303866386413574e-02
-3.482819302007555962e-03,2.356625907123088837e-02
-1.576378475874662399e-03,-2.294976450502872467e-02
-5.933224456384778023e-04,5.064582917839288712e-03
3.513342514634132385e-02,8.228426799178123474e-03
-2.070812322199344635e-02,5.630482733249664307e-02
1.533935870975255966e-02,6.971965543925762177e-03
-2.370492555201053619e-03,6.060782819986343384e-03
-5.552791431546211243e-02,7.375219836831092834e-03
4.464675113558769226e-02,-6.034995242953300476e-02
2.753165178000926971e-02,-4.782277345657348633e-02
3.485815250314772129e-04,1.034056767821311951e-02
1.012965221889317036e-03,4.116778727620840073e-03
-1.375161390751600266e-02,-2.914372365921735764e-03
-1.093655009754002094e-03,-8.471870678476989269e-04
1.058579422533512115e-03,1.501059718430042267e-02
1.638372428715229034e-02,-1.256993971765041351e-02
7.442098576575517654e-03,2.025105617940425873e-02
-2.957083098590373993e-02,-1.706352643668651581e-02
-2.362861530855298042e-03,-5.615559872239828110e-03
-6.991401896812021732e-04,2.215264365077018738e-02
-6.674645002931356430e-03,-5.297195166349411011e-04
-1.470620557665824890e-02,1.645674929022789001e-02
5.267339944839477539e-02,-2.613895386457443237e-02
1.251052878797054291e-02,-1.039118622429668903e-03
2.290398348122835159e-03,1.568279042840003967e-02
-1.342776417732238770e-02,3.916431963443756104e-02
8.938580751419067383e-03,2.665515756234526634e-03
-1.514174230396747589e-02,3.668890520930290222e-02
-1.236728392541408539e-02,-1.174770854413509369e-02
-7.971012382768094540e-04,1.797434315085411072e-02
-1.678232289850711823e-02,4.155439883470535278e-02
2.991955552715808153e-04,2.327384427189826965e-03
2.940212376415729523e-02,-2.476003766059875488e-02
-1.409445330500602722e-02,4.028982669115066528e-02
2.230238914489746094e-02,-1.810611970722675323e-02
-6.988663226366043091e-03,-2.063431032001972198e-02
7.760709151625633240e-03,1.801313919713720679e-04
6.167298182845115662e-02,-4.433585330843925476e-02
2.306863479316234589e-02,-4.025620967149734497e-02
2.879378618672490120e-03,-2.721201069653034210e-02
7.987527176737785339e-03,1.198308728635311127e-02
1.762677356600761414e-02,1.887185499072074890e-02
4.997361823916435242e-02,-2.544819377362728119e-02
7.511644065380096436e-02,-9.526767581701278687e-02
1.381230540573596954e-02,-7.364389486610889435e-03
-1.255528256297111511e-02,-1.579495146870613098e-02
3.103462606668472290e-02,-3.297111392021179199e-02
1.430121622979640961e-02,1.601302251219749451e-02
2.404342591762542725e-02,2.328370884060859680e-02
-4.462491720914840698e-02,1.529674325138330460e-02
-2.563063055276870728e-02,-7.744512055069208145e-03
3.312610462307929993e-02,2.222752012312412262e-02
5.817339941859245300e-02,-4.841334745287895203e-02
3.648747876286506653e-02,-2.207378111779689789e-02
-5.339008197188377380e-02,1.873484253883361816e-02
2.028395794332027435e-02,-1.777991279959678650e-02
-2.088551782071590424e-02,-2.224663458764553070e-02
-2.074892632663249969e-02,-2.268776111304759979e-02
3.000812605023384094e-02,-3.719824180006980896e-02
-9.030519053339958191e-03,-4.629336763173341751e-04
3.608599677681922913e-02,3.569881618022918701e-02
-7.084967102855443954e-03,-1.472694799304008484e-03
2.051436714828014374e-02,1.731185987591743469e-02
2.032421156764030457e-02,2.071467600762844086e-02
-1.495593786239624023e-02,-1.601877622306346893e-02
-7.369725033640861511e-03,-6.796859670430421829e-03
6.577986478805541992e-02,-7.425283640623092651e-02
-1.651003956794738770e-02,1.780243031680583954e-02
6.024909205734729767e-03,1.361773721873760223e-02
-4.780947230756282806e-03,-1.058551855385303497e-02
-3.968333080410957336e-02,3.733931481838226318e-02
-5.435688048601150513e-02,5.455123260617256165e-02
-1.676833629608154297e-02,4.046766459941864014e-02
5.782892554998397827e-02,-5.895670503377914429e-02
3.321430995129048824e-04,1.141464151442050934e-02
5.988544225692749023e-02,-6.169952824711799622e-02
-5.299026612192392349e-03,-2.399130025878548622e-03
1.398203987628221512e-02,-1.731411926448345184e-02
-2.194280549883842468e-02,-2.307661063969135284e-02
-6.972603034228086472e-03,-1.323933992534875870e-02
-1.510969456285238266e-02,-1.231891009956598282e-02
-6.799253169447183609e-03,2.166014601243659854e-04
1.999242976307868958e-02,-2.332905679941177368e-02
-5.292803980410099030e-03,-8.322224020957946777e-03
1.537065394222736359e-02,1.594781503081321716e-02
1.388945151120424271e-03,-6.728222966194152832e-02
-1.114179939031600952e-02,-3.304268931970000267e-03
7.872115238569676876e-04,-2.747179707512259483e-03
7.592281326651573181e-04,5.483670160174369812e-03
-3.927553445100784302e-02,1.654003001749515533e-02
1.164795923978090286e-02,1.102137938141822815e-02
2.167297899723052979e-02,2.180506661534309387e-02
2.463255263864994049e-02,2.511699125170707703e-02
-1.180268358439207077e-03,1.310994941741228104e-02
-4.084390401840209961e-02,-2.541765384376049042e-02
3.679903596639633179e-02,-1.789447851479053497e-02
-5.961686372756958008e-03,-3.733990248292684555e-03
1.475376915186643600e-02,5.570643115788698196e-03
3.484478220343589783e-03,1.946330070495605469e-03
7.661816664040088654e-03,-9.206455200910568237e-03
-1.282448600977659225e-02,7.910700514912605286e-03
4.626344144344329834e-02,-4.933886602520942688e-02
-1.137603074312210083e-02,2.793335914611816406e-02
1.079734042286872864e-02,1.245258282870054245e-02
3.119660727679729462e-02,-2.404510229825973511e-02
1.653086394071578979e-02,3.221163153648376465e-02
-3.498614206910133362e-02,3.928988054394721985e-02
-1.317846216261386871e-02,-1.262733340263366699e-02
-5.788552574813365936e-03,-6.525123491883277893e-03
5.356125161051750183e-02,-5.035010725259780884e-02
2.218148205429315567e-03,1.068099681288003922e-02
-9.606219828128814697e-03,6.833893246948719025e-03
5.024081096053123474e-02,-3.304190933704376221e-02
-8.538293652236461639e-03,-8.725880645215511322e-03
7.165168225765228271e-02,-5.845599621534347534e-02
-5.565028637647628784e-02,5.323665216565132141e-02
-2.464039716869592667e-03,1.444015768356621265e-03
6.183170247822999954e-03,-2.367569832131266594e-03
-4.144736379384994507e-02,2.328672632575035095e-02
7.550033275038003922e-03,8.559289388358592987e-03
-1.048631500452756882e-02,2.800368517637252808e-02
2.566461451351642609e-03,2.972724381834268570e-03
8.018373628146946430e-04,-2.075025113299489021e-03
-2.747556427493691444e-03,2.401338517665863037e-02
-5.653038970194756985e-04,-2.033606404438614845e-03
2.593748457729816437e-02,-4.551334306597709656e-03
5.393249914050102234e-03,4.433404188603162766e-03
1.272881962358951569e-02,1.232411433011293411e-02
-5.178610980510711670e-02,3.624134138226509094e-02
-2.614718861877918243e-02,-2.033474668860435486e-02
-2.124258130788803101e-02,1.441555330529808998e-03
8.366677910089492798e-03,7.212531287223100662e-03
7.282682228833436966e-03,-1.762717438396066427e-04
1.754792965948581696e-02,-3.274019341915845871e-03
6.300326902419328690e-03,-1.768190786242485046e-02
