-3.239461779594421387e-02,-2.432212606072425842e-02,-2.543039806187152863e-02,2.140787430107593536e-02,3.256010264158248901e-02,4.218779131770133972e-02,-2.288097888231277466e-02,-7.506044581532478333e-03,2.385687455534934998e-02,-1.445784326642751694e-02,1.275644730776548386e-02,3.467990830540657043e-02,1.017285045236349106e-02,-4.198335111141204834e-03,2.617110870778560638e-02,5.022861529141664505e-03,-3.543338179588317871e-02,1.190429460257291794e-02,1.834899559617042542e-02,-2.921081613749265671e-03,-1.244646683335304260e-02,-1.031253719702363014e-03,2.369237132370471954e-02,-5.794627359136939049e-04,-1.311674155294895172e-02,-1.971727982163429260e-02,-1.245633512735366821e-02,-5.583249963819980621e-03,-3.674528747797012329e-02,-1.475611119531095028e-03,4.142763558775186539e-03,8.240620372816920280e-04,2.798045752570033073e-03,-6.389114074409008026e-03,1.429845299571752548e-02,5.444807931780815125e-03,-1.582843065261840820e-02,3.327173739671707153e-02,-2.147446572780609131e-02,-1.676497049629688263e-02,5.237110308371484280e-04,-1.470112707465887070e-02,-3.963885363191366196e-03,-4.017998278141021729e-02,3.476542234420776367e-02,1.155325863510370255e-02,3.994151018559932709e-03,-2.003655210137367249e-02,-2.396406605839729309e-02,-6.558441091328859329e-03,-1.830917410552501678e-02,1.524684578180313110e-02,3.019466623663902283e-02,1.250528544187545776e-02,4.500157199800014496e-03,-4.367850720882415771e-02,2.309194207191467285e-02,-1.121980370953679085e-03,-1.185180153697729111e-03,-3.698353096842765808e-02,-1.634126901626586914e-02,-3.308853134512901306e-02,-1.939799636602401733e-02,-1.068357843905687332e-03,-2.229538047686219215e-03,2.286989800631999969e-02,-3.624891978688538074e-04,1.359459129162132740e-03,-1.163814775645732880e-02,3.574065491557121277e-02,-3.521552681922912598e-02,8.194640278816223145e-03,7.287780172191560268e-04,-1.598753780126571655e-02,1.581636024639010429e-03,-1.244245655834674835e-02,-6.751657463610172272e-03,1.589786447584629059e-02,-1.422034297138452530e-02,-4.764753580093383789e-02,9.742714464664459229e-03,-6.457700859755277634e-03,1.560067292302846909e-02,1.946666650474071503e-02,1.254566293209791183e-02,5.630722735077142715e-03,1.076458115130662918e-02,-2.923131175339221954e-02,1.059514842927455902e-02,-1.820494048297405243e-02,-7.791755720973014832e-03,-1.266629528254270554e-02,-1.730149611830711365e-02,-1.775944605469703674e-02,-3.948092926293611526e-03,-1.631168648600578308e-02,-4.140916094183921814e-02,-1.038117147982120514e-02,-5.433852784335613251e-03,-1.569167524576187134e-02,3.335471963509917259e-03,2.906154468655586243e-02,-1.251352112740278244e-02,-1.110717467963695526e-02,2.462575025856494904e-02,2.172291744500398636e-03,-1.825441047549247742e-02,1.958160288631916046e-02,-4.839099012315273285e-03,5.991785321384668350e-03,1.279063709080219269e-02,4.160165321081876755e-03,1.087914500385522842e-02,-2.295552287250757217e-03,-3.745860233902931213e-02,-4.063018783926963806e-02,-1.072882581502199173e-02,3.087382763624191284e-02,-1.599076576530933380e-02,1.117740198969841003e-02,-1.007896941155195236e-02,9.766773320734500885e-03,-2.098231762647628784e-02,-8.850125595927238464e-03,3.670923784375190735e-02,1.367436815053224564e-02,-6.646375637501478195e-03,-1.370855141431093216e-03,-2.432693168520927429e-02,1.336949504911899567e-02,-6.855528336018323898e-03,-2.636297419667243958e-02,-1.358957774937152863e-02,3.217284753918647766e-02,1.993416249752044678e-02,2.801966853439807892e-03,1.750019192695617676e-02,-1.239670440554618835e-02,-1.436617691069841385e-02,-4.865891824010759592e-04,-2.992312796413898468e-02,-3.909312188625335693e-02,1.427160669118165970e-02,2.830873616039752960e-02,7.109037134796380997e-03,-5.872441921383142471e-03,7.088992744684219360e-03,7.275048643350601196e-03,-1.158532034605741501e-02,-8.096003904938697815e-03,-1.186547242105007172e-02,-4.630965739488601685e-02,-5.017599556595087051e-03,-4.066983982920646667e-02,-5.147462710738182068e-03,-5.246480926871299744e-03,4.662548657506704330e-03,-7.917423499748110771e-04,-2.667872048914432526e-02,-1.365506742149591446e-02,-1.624146127142012119e-03,-1.644035801291465759e-02,-2.292697690427303314e-02,-4.105810821056365967e-02,-2.453994471579790115e-03,-3.165030479431152344e-02,-1.203963905572891235e-02,-1.424253336153924465e-03,-1.278274785727262497e-02,3.888080827891826630e-03,-7.568851113319396973e-03,3.672931715846061707e-02,-2.162586338818073273e-02,-1.809133030474185944e-02,-2.627506386488676071e-03,1.862090639770030975e-02,6.294602528214454651e-03,3.556970739737153053e-03,1.570179313421249390e-02,6.980757229030132294e-03,-1.693252101540565491e-02,1.633225474506616592e-03,6.410325877368450165e-03,-8.634954428998753428e-05,4.127650521695613861e-03,-3.647016827017068863e-03,-3.008413827046751976e-03,-7.692461367696523666e-03,1.401923946104943752e-03,-6.976478733122348785e-03,2.551670745015144348e-02,-7.485633715987205505e-03,6.198381539434194565e-03,-1.094307657331228256e-02,4.853036254644393921e-03,-4.093932360410690308e-02,-7.429771940223872662e-04,2.328225784003734589e-02,-2.060897089540958405e-02,-2.109161578118801117e-02,-5.708578391931951046e-04,-8.467384614050388336e-04,-4.014144465327262878e-02,-2.829501777887344360e-02,3.070200793445110321e-03,1.051986590027809143e-02,2.444225363433361053e-02,3.842923045158386230e-02,1.935817487537860870e-02,-1.770809665322303772e-02,3.313195193186402321e-03,-2.580355480313301086e-02,-7.566306274384260178e-03,1.852857996709644794e-03,-4.369893111288547516e-03,-1.613695174455642700e-02,-4.913100507110357285e-03,-9.511155076324939728e-03,-3.447480499744415283e-02,-9.409156627953052521e-03,-1.705428585410118103e-02,-3.512318059802055359e-02,2.106196992099285126e-02,-2.535967621952295303e-03,-1.106374710798263550e-02,-1.299676205962896347e-02,9.089913219213485718e-03,6.369139999151229858e-03,2.945746108889579773e-02,-9.183180518448352814e-03,4.774693399667739868e-03,1.895079389214515686e-02,-6.185922306030988693e-03,1.263965293765068054e-02,1.375930290669202805e-02,-9.716745465993881226e-03,2.425841614603996277e-02,1.101218350231647491e-02,8.986009284853935242e-03,-2.876790612936019897e-02,-2.023415453732013702e-02,-4.207314178347587585e-02,-3.006410412490367889e-02,-1.582443341612815857e-02,-3.733401244971901178e-04,-6.876960978843271732e-04,-2.880295924842357635e-02,-4.899085965007543564e-03,-2.398198656737804413e-02,-1.528400089591741562e-02,2.378652244806289673e-02,-8.292650803923606873e-03,-1.027106423862278461e-03,-8.683325722813606262e-03,4.380557686090469360e-03,3.338736668229103088e-02,4.158779233694076538e-02,-5.736267659813165665e-03,8.898540399968624115e-04,1.006390713155269623e-02,2.674462646245956421e-02,-2.678724750876426697e-02,2.710042335093021393e-02,1.043203473091125488e-02,1.039960701018571854e-02,-3.962032031267881393e-03,7.489425595849752426e-03,9.777819737792015076e-03,-2.995146671310067177e-03,-2.766104601323604584e-02,7.351526874117553234e-04,1.610571891069412231e-02,-1.006069034337997437e-02,-2.451298758387565613e-02,2.676862850785255432e-02,-3.543829079717397690e-03,-1.323954388499259949e-02,-2.680061943829059601e-02,1.821547374129295349e-02,-2.198104746639728546e-02,-4.063285887241363525e-02,9.329367429018020630e-03,1.029780134558677673e-02,-1.101103331893682480e-02,9.184409864246845245e-03,-1.484462246298789978e-02,1.349836122244596481e-02,7.744273170828819275e-03,-6.917061749845743179e-03,-4.697164520621299744e-02,-2.051365561783313751e-02,1.569238258525729179e-03,-3.191000968217849731e-02,-3.748675063252449036e-02,-3.117293119430541992e-03,2.354921214282512665e-02,6.895918864756822586e-03,-2.816273644566535950e-02,1.308310020249336958e-04,-2.421430870890617371e-02,-1.790553145110607147e-02,-1.796453818678855896e-02,1.334310788661241531e-02,-3.152608498930931091e-02,-1.830845139920711517e-02,-9.378490038216114044e-03,1.098639331758022308e-02,4.281339235603809357e-03,1.090243458747863770e-02,8.911425829865038395e-04,-4.052904434502124786e-03,-1.117904018610715866e-02,1.250152848660945892e-02,3.985173534601926804e-03,2.019355818629264832e-02,-1.080341637134552002e-02,-1.565208658576011658e-02,-3.434756025671958923e-02,-2.823266386985778809e-02,1.463339198380708694e-02,3.234288468956947327e-02,-9.785906411707401276e-03,-7.892575114965438843e-03,5.634205415844917297e-02,3.024592995643615723e-03,2.481956407427787781e-02,4.436156712472438812e-03,-3.239936009049415588e-02,5.724867805838584900e-03,1.786790788173675537e-02,1.352023053914308548e-02,-5.240295082330703735e-03,-4.525862634181976318e-02,-8.357497863471508026e-03,3.370793769136071205e-03,-2.574779093265533447e-02,-2.461655531078577042e-03,1.611924916505813599e-02,-7.201924920082092285e-03,-1.876183971762657166e-02,2.747104875743389130e-02,3.103733249008655548e-02,-2.177782915532588959e-02,4.405398294329643250e-02,-2.671124786138534546e-02,2.104528993368148804e-02,3.384366258978843689e-02,3.443525359034538269e-02,-4.090091213583946228e-02,1.868598535656929016e-02,2.440688014030456543e-02,-6.899831816554069519e-03,-2.460524067282676697e-02,1.005959510803222656e-02,4.249748773872852325e-03,-6.530969869345426559e-03,-3.723425418138504028e-02,2.085785754024982452e-02,-3.413442522287368774e-02,1.284853368997573853e-02,3.041477873921394348e-03,-4.878249950706958771e-03,5.274217948317527771e-02,8.328150957822799683e-03,8.279602974653244019e-03,-1.747285202145576477e-02,2.440887503325939178e-03,-3.665440902113914490e-02,-3.125432413071393967e-03,-2.623491734266281128e-02,-5.079810973256826401e-03,-2.380901947617530823e-02,-5.743121262639760971e-03,5.018816329538822174e-03,-1.507138274610042572e-02,2.419507503509521484e-02,2.217859402298927307e-02,-7.668253500014543533e-03,-9.188924916088581085e-03,9.938739240169525146e-03,-3.298808261752128601e-02,1.408708002418279648e-02,3.367178607732057571e-03,-6.198644405230879784e-04,-3.486551716923713684e-02,-1.772917807102203369e-02,1.553013175725936890e-02,2.668527513742446899e-02,3.023101761937141418e-02,8.687698282301425934e-03,-2.294042846187949181e-03,2.517035789787769318e-02,-3.476739628240466118e-03,8.285249583423137665e-03,1.655882969498634338e-02,3.646166995167732239e-02,3.821081947535276413e-03,-3.365389257669448853e-02,1.474650856107473373e-02,-9.944353252649307251e-03,-2.355114370584487915e-02,-3.826631233096122742e-02,-2.994874725118279457e-03,1.000257208943367004e-02,-8.445254527032375336e-03,-3.864510357379913330e-02,2.606160193681716919e-02,1.805640198290348053e-02,-2.234834805130958557e-02,-3.696521278470754623e-03,-2.803822793066501617e-02,-2.252930030226707458e-02,-4.375685472041368484e-03,4.693574272096157074e-03,1.717524789273738861e-02,4.258866608142852783e-02,4.743479937314987183e-02,8.197310380637645721e-03,2.135918708518147469e-03,1.453859172761440277e-02,1.190726645290851593e-02,-2.982896380126476288e-02,-3.486086800694465637e-02,4.701954126358032227e-02,1.613745093345642090e-02,-3.836935758590698242e-02,4.832270089536905289e-03,-2.630452997982501984e-02,5.466913804411888123e-03,-2.688081003725528717e-03,1.896318793296813965e-02,-1.662866584956645966e-02,-1.398657634854316711e-02,-6.465790793299674988e-03,-6.725396029651165009e-03,-8.421434089541435242e-03,2.775046415627002716e-02,-2.510466054081916809e-02,2.037284709513187408e-02,1.026868540793657303e-02,7.793960161507129669e-03,4.208437167108058929e-03,3.560488112270832062e-04,-1.295259408652782440e-02,-3.288030624389648438e-02,-1.287984428927302361e-03,-2.910253964364528656e-02,-3.717696235980838537e-04,-3.901756182312965393e-02,-1.519205863587558270e-03,2.053287066519260406e-02,-2.124686352908611298e-02,1.253810524940490723e-02,-3.271108493208885193e-02,-3.236721036955714226e-03,-4.709836468100547791e-02,-8.929221890866756439e-03,-3.569564595818519592e-02,-1.823025569319725037e-02,3.352215513586997986e-02,-1.630714908242225647e-02,3.697742475196719170e-03,1.444731187075376511e-02,7.209899369627237320e-03,-5.067982152104377747e-02,-1.234990451484918594e-02,-6.629390991292893887e-04,3.311853855848312378e-02,-9.110083803534507751e-03,1.154138427227735519e-02,4.131882637739181519e-02,-1.119279302656650543e-02,-2.406640676781535149e-03,-9.806907735764980316e-03,-5.541942548006772995e-03,-1.761120185256004333e-02,2.521879225969314575e-02,-4.628250375390052795e-03,1.878638193011283875e-02,-3.176722303032875061e-02,2.571360394358634949e-02,-2.846520766615867615e-02,1.329274009913206100e-02,1.090532634407281876e-02,-9.519621729850769043e-03,-1.822930388152599335e-02,-4.316952079534530640e-03,3.956513945013284683e-03,-2.186368685215711594e-03,-3.912101686000823975e-02,-1.506519876420497894e-02,-4.735404998064041138e-02,1.306794956326484680e-02,9.240371175110340118e-03,-8.210903964936733246e-03,8.798921480774879456e-03,3.080510720610618591e-02,-1.864114892669022083e-03,-2.475754916667938232e-02,-1.767968572676181793e-02,4.246625304222106934e-02,-1.806095242500305176e-03,-1.272257766686379910e-03,2.646142989397048950e-02,-9.838832542300224304e-03,-2.529685152694582939e-03,8.216748014092445374e-03,-2.559315040707588196e-02,2.793927211314439774e-03,1.740638911724090576e-02,-1.151866465806961060e-02,-1.436623092740774155e-02,-1.455060299485921860e-02,1.252850424498319626e-02,-8.443123660981655121e-03,-2.277529798448085785e-02,2.558983676135540009e-02,-2.233040705323219299e-02,-3.021562937647104263e-03,7.878484204411506653e-03,-1.417136099189519882e-02,-3.638321906328201294e-02,-1.144716516137123108e-02,-1.130553707480430603e-02,-1.153978612273931503e-02,-1.231424883008003235e-02,2.491354756057262421e-02,-3.634222969412803650e-02,3.850036067888140678e-03,7.384454831480979919e-03,-3.450813144445419312e-02,-3.624090924859046936e-02,2.267370745539665222e-02,-2.791334129869937897e-02,-2.887501567602157593e-02,1.294567622244358063e-02,-2.244718139991164207e-03,4.202233627438545227e-03,1.817107014358043671e-02,-4.147405549883842468e-02,-2.599746175110340118e-02,2.414399571716785431e-02,8.486873470246791840e-03,-5.118464585393667221e-03,9.869317524135112762e-03,6.503042299300432205e-03,-2.827580459415912628e-02,3.819119930267333984e-02,1.632348075509071350e-02,-2.921986952424049377e-02,2.419174462556838989e-02,1.338218571618199348e-03,-2.509320899844169617e-02,-2.427236363291740417e-02,-2.142121829092502594e-02,-1.222031563520431519e-02,-4.724751040339469910e-02,3.262060999986715615e-06,-1.104718167334794998e-02,-2.032399177551269531e-02,-2.923141419887542725e-02,-1.004226855002343655e-03,-2.927689626812934875e-02,-2.299140766263008118e-02,-2.483329176902770996e-02,-9.148217737674713135e-03,2.839534915983676910e-02,-7.336467970162630081e-03,-4.943581763654947281e-03,-2.083877474069595337e-02,-2.438432909548282623e-02,-9.910825639963150024e-03,5.485399626195430756e-03,1.634610816836357117e-02,3.745745122432708740e-02,5.124486982822418213e-03,1.425720285624265671e-02,-3.888938808813691139e-03,-4.457349330186843872e-02,-1.215589116327464581e-03,8.482694625854492188e-03,9.217569604516029358e-03,-1.373351737856864929e-02,-1.942833885550498962e-02,7.782466243952512741e-03,9.730470366775989532e-03,3.163733636029064655e-04,3.006914863362908363e-03,-7.474574726074934006e-03,2.765622362494468689e-02,-2.917041257023811340e-02,2.213598974049091339e-02,1.283620949834585190e-02,3.133346326649188995e-03,-2.013320662081241608e-02,6.410735193639993668e-03,-1.560623757541179657e-02,-5.960638169199228287e-03,5.436991341412067413e-03,4.795684479176998138e-03,-2.133394591510295868e-02,5.771229509264230728e-03,2.606758102774620056e-02,3.757815575227141380e-03,-1.138923224061727524e-02,-4.549518972635269165e-02,-8.215347304940223694e-03,2.438048087060451508e-02,-2.134866826236248016e-02,-1.116190664470195770e-02,-2.831778489053249359e-02,1.738701015710830688e-02,-1.679215696640312672e-03,-4.069665074348449707e-02,2.161819860339164734e-02,-6.679376238025724888e-04,-3.422679379582405090e-02,2.919384464621543884e-02,9.252870455384254456e-03,-7.937963120639324188e-03,3.917830064892768860e-03,3.960850089788436890e-02,-2.383179496973752975e-03,-1.219889987260103226e-02,-3.027960844337940216e-02,4.847066942602396011e-03,1.095195300877094269e-02,2.436229214072227478e-02,-1.423177868127822876e-02,-5.001031327992677689e-03,-4.442833364009857178e-02,2.099737897515296936e-02,-1.239897683262825012e-02,1.401278842240571976e-02,-1.138557854574173689e-04,-3.206437453627586365e-02,6.397618446499109268e-03,1.072790659964084625e-02,1.098692230880260468e-02,3.051898628473281860e-02,-3.775843232870101929e-02,-2.735653892159461975e-03,2.002471685409545898e-02,-5.463047418743371964e-04,-1.483326684683561325e-02,-5.650450941175222397e-03,5.105846561491489410e-03,-3.103808872401714325e-02,2.577100880444049835e-02,-6.259859073907136917e-03,-3.346063941717147827e-02,2.348255552351474762e-02,3.757704398594796658e-04,6.184999365359544754e-03,-2.807388082146644592e-02,-7.787933107465505600e-03,3.484219778329133987e-03,1.668528281152248383e-02,-2.875900082290172577e-02,-9.207261726260185242e-03,-1.014680042862892151e-02,-2.404831722378730774e-02,1.266530808061361313e-02,2.667964063584804535e-02,2.483141049742698669e-02,-2.522802352905273438e-02,9.230674244463443756e-03,-1.537220459431409836e-02,-1.562190154800191522e-04,-2.488418109714984894e-02,-2.899424172937870026e-02,-3.366255760192871094e-02,5.842871963977813721e-02,1.551025453954935074e-02,2.932619489729404449e-02,-5.651596002280712128e-03,-2.550685591995716095e-02,7.584592327475547791e-03,-3.743016347289085388e-02,-2.245501615107059479e-02,2.169279195368289948e-02,9.352214634418487549e-03,-2.579795941710472107e-02,-1.961190439760684967e-02,-2.232749573886394501e-02,-4.497648403048515320e-02,-4.023583140224218369e-03,-2.002182975411415100e-02,-2.452341839671134949e-02,2.670415304601192474e-02,-8.429806679487228394e-03,-6.931130774319171906e-03,-8.817737922072410583e-03,2.663682773709297180e-02,1.047254912555217743e-02,1.970597356557846069e-02,-1.594146899878978729e-02,-2.093112841248512268e-02,-2.717935666441917419e-02,-2.993092685937881470e-02,-1.110787852667272091e-03,-1.796035468578338623e-02,-2.031048759818077087e-02,1.674708537757396698e-02,-3.982676658779382706e-03,-2.907509729266166687e-02,8.431142196059226990e-03,-1.913624873850494623e-04,-4.865108523517847061e-03,5.505632609128952026e-03,-9.809873066842556000e-03,-7.180808112025260925e-03,-5.334947723895311356e-03,-1.908865198493003845e-02,3.197354078292846680e-02,1.408240292221307755e-02,1.661541685461997986e-02,-2.583566820248961449e-03,-5.326111614704132080e-02,-3.094873018562793732e-02,1.788283581845462322e-03,-9.829643182456493378e-03,5.835391115397214890e-03,1.133161783218383789e-02,1.035422924906015396e-02,4.475507512688636780e-02,7.810752373188734055e-03,-1.717968285083770752e-02,-2.929493412375450134e-02,1.278627477586269379e-02,-2.143147960305213928e-02,-3.454040363430976868e-02,1.845512539148330688e-02,-3.797539323568344116e-02,-1.041949633508920670e-02,3.671208396553993225e-02,-7.189934607595205307e-03,1.901203580200672150e-02,-3.364289551973342896e-02,1.894972869195044041e-03,-1.334464922547340393e-02,-1.937193982303142548e-02,-3.407836705446243286e-02,-1.383092906326055527e-02,1.554941479116678238e-02,1.021067728288471699e-03,2.382844872772693634e-02,-2.731063030660152435e-02,-2.623280510306358337e-02,7.787199225276708603e-03,-2.554088132455945015e-03,-3.954437375068664551e-02,7.217002566903829575e-03,2.766330353915691376e-02,-1.649872027337551117e-02,-2.673190087080001831e-02,3.145339339971542358e-02,-1.655779592692852020e-02,-4.056696221232414246e-02,-2.959426864981651306e-02,-4.769946914166212082e-03,8.709372021257877350e-03,-3.009991906583309174e-02,-3.717725351452827454e-02,1.655902154743671417e-02,-1.327919308096170425e-02,-1.443894207477569580e-02,-2.063994295895099640e-02,-2.218585833907127380e-02,3.773905709385871887e-02,2.017858671024441719e-03,-1.843848265707492828e-02,-2.988339168950915337e-03,-1.248324848711490631e-02,-3.102464973926544189e-02,-4.418015480041503906e-03,2.062408998608589172e-02,-4.081391915678977966e-02,-4.095153883099555969e-03,8.820890448987483978e-03,-1.255173794925212860e-02,2.191637875512242317e-03,-3.574934974312782288e-02,-2.924370393157005310e-02,-1.735859923064708710e-02,1.359003316611051559e-02,-3.620607312768697739e-04,-1.554875518195331097e-03,1.377308741211891174e-02,1.241615321487188339e-02,-2.266651391983032227e-02,5.041451193392276764e-03,1.768020540475845337e-02,-2.861976064741611481e-02,-4.589917510747909546e-02,-1.209471095353364944e-02,1.079105306416749954e-02,-2.711052261292934418e-02,4.030602797865867615e-02,3.947021812200546265e-02,2.216066792607307434e-02,-8.938444778323173523e-03,3.146654739975929260e-02,-4.181408882141113281e-02,7.594557479023933411e-03,-2.389908581972122192e-02,1.579049415886402130e-02,-1.734726876020431519e-02,-2.674372494220733643e-02,-1.655495143495500088e-03,5.615978036075830460e-03,1.403379626572132111e-02,-3.263872861862182617e-02,-1.331912912428379059e-02,1.394307427108287811e-02,1.982003636658191681e-02,1.969381608068943024e-02,-7.305986247956752777e-03,-9.030955843627452850e-03,-8.805062621831893921e-03,-1.189146563410758972e-02,-1.521563436836004257e-02,-1.129445969127118587e-03,1.617455668747425079e-02,-2.336018346250057220e-02,7.365246769040822983e-03,-1.641676947474479675e-02,-1.450544781982898712e-02,-8.513281121850013733e-03,3.069381229579448700e-03,2.556999586522579193e-02,1.207613851875066757e-02,-2.703740075230598450e-02,2.183574438095092773e-02,-1.670568063855171204e-02,-3.615184919908642769e-03,1.148309186100959778e-02,-1.891011931002140045e-02,-1.154509931802749634e-02,1.960350573062896729e-02,3.014737553894519806e-02,2.248641848564147949e-02,-2.472968585789203644e-02,1.478599291294813156e-02,-1.938987523317337036e-02,-1.531088445335626602e-02,-6.981664919294416904e-04,-2.303772419691085815e-02,-2.177559584379196167e-02,-5.189052224159240723e-02,-2.385338209569454193e-02,-2.563622221350669861e-02,-6.263548973947763443e-03,1.171464752405881882e-02,1.186606660485267639e-02,-6.473527755588293076e-03,1.045264583081007004e-02,3.664151579141616821e-02,1.830191537737846375e-02,2.487185038626194000e-02,-2.370142377912998199e-02,-1.277053449302911758e-02,-2.525652758777141571e-02,1.553154271095991135e-02,-2.119746245443820953e-02,-2.017009817063808441e-02,-3.979533445090055466e-03,3.110014135017991066e-03,-7.853535003960132599e-03,4.908956214785575867e-02,-1.549530867487192154e-02,-3.180818259716033936e-02,-3.144121170043945312e-02,-3.330089896917343140e-02,2.689734660089015961e-02,-4.677451029419898987e-02,-1.206630561500787735e-02,2.061803825199604034e-03,-1.872393861413002014e-02,2.634412422776222229e-02,8.093676529824733734e-03,-2.330054342746734619e-02,2.699685096740722656e-02,-9.998249821364879608e-03,-1.843768917024135590e-02,1.073872018605470657e-02,-3.732683544512838125e-04,1.958265900611877441e-02,-3.712858632206916809e-02,-1.619059406220912933e-02,-2.121024765074253082e-02,1.474713627249002457e-02,1.530345249921083450e-02,-9.463273920118808746e-03,-2.199302427470684052e-03,-2.835463266819715500e-03,-1.132032927125692368e-02,-1.590086333453655243e-02,1.298181526362895966e-02,-1.700218534097075462e-03,-1.142614334821701050e-02,1.213464606553316116e-02,-8.205355145037174225e-03,1.433347444981336594e-02,4.338386468589305878e-03,1.923749106936156750e-03,1.960691809654235840e-02,1.593428105115890503e-02,-2.470685727894306183e-02,-1.722059398889541626e-02,1.721158390864729881e-03,-4.478568211197853088e-02,-3.491441160440444946e-02,1.566074229776859283e-02,3.653463441878557205e-03,1.069358363747596741e-02,-2.163644414395093918e-03,-3.682687506079673767e-02,3.690554760396480560e-03,-3.627592232078313828e-03,-1.980678178369998932e-02,6.791990716010332108e-03,1.327434554696083069e-02,-7.010573521256446838e-03,-9.757040068507194519e-03,9.217055514454841614e-03,4.029121249914169312e-03,-1.366834435611963272e-02,-6.023878813721239567e-04,8.660614490509033203e-03,-2.207162976264953613e-02,5.765544716268777847e-03,-9.908896870911121368e-03,-4.871224239468574524e-02,6.562968483194708824e-04,-1.424559485167264938e-02,1.524713169783353806e-02,1.182077545672655106e-02,1.526192063465714455e-03,-1.358173973858356476e-02,7.287633605301380157e-03,1.538668107241392136e-02,2.724483981728553772e-02,1.672439277172088623e-02,-9.395806118845939636e-03,2.473414177075028419e-03,-8.355249650776386261e-03,-4.516743868589401245e-02,1.819697581231594086e-02,7.997791282832622528e-03,-2.998974174261093140e-03,-1.170509587973356247e-02,-2.352903969585895538e-02,-3.732020407915115356e-02,-6.817476358264684677e-03,1.113748643547296524e-02,-2.447790466248989105e-02,2.852932550013065338e-03,-6.748896557837724686e-03,3.819286823272705078e-02,-1.893319189548492432e-02,-1.858268748037517071e-03,-2.964507788419723511e-03,-9.166995063424110413e-03,1.044704671949148178e-02,-1.721463911235332489e-02,-1.712076365947723389e-02,1.190353650599718094e-02,2.052500471472740173e-02,3.315333649516105652e-02,-3.222487284801900387e-04,-1.410274114459753036e-02,-4.001765325665473938e-02,-1.557986252009868622e-02,-4.024390503764152527e-02,-1.154076308012008667e-02,-6.108678411692380905e-03,-1.271600183099508286e-02,-1.901399530470371246e-02,1.675843447446823120e-02,-1.243564859032630920e-02,-2.745060250163078308e-03,-9.076811373233795166e-03,-7.238973397761583328e-03,-1.581306383013725281e-02,-3.541960567235946655e-02,1.864785142242908478e-02,8.623938192613422871e-04,-2.224202826619148254e-02,2.902743965387344360e-02,-1.106872130185365677e-02,-3.274478763341903687e-02,-4.397863894701004028e-02,-3.916888497769832611e-03,-2.153826318681240082e-02,-6.523381453007459641e-04,-3.189066424965858459e-03,-2.728438377380371094e-02,-1.133441366255283356e-02,-1.016790233552455902e-02,6.507780053652822971e-04,1.288535259664058685e-02,-1.709265820682048798e-02,3.120531328022480011e-03,1.567219756543636322e-02,-1.576077193021774292e-02,-1.955707184970378876e-02,-1.223144866526126862e-02,7.408211473375558853e-03,-1.933761127293109894e-02,3.067085891962051392e-02,-2.768248319625854492e-02,1.875438541173934937e-02,3.628841834142804146e-03,-2.696905285120010376e-02,3.994795493781566620e-03,-7.865885272622108459e-03,-8.474911563098430634e-03,-8.423692546784877777e-03,-2.460726164281368256e-02,-1.950564980506896973e-02,-4.549021832644939423e-03,-1.937280781567096710e-02,9.848346933722496033e-03
-1.641358248889446259e-02,-3.363399207592010498e-02,-1.054660230875015259e-02,3.706052526831626892e-02,-1.562036387622356415e-02,2.445818483829498291e-02,3.416882827877998352e-03,-5.870977416634559631e-03,-6.554661784321069717e-03,-2.672405913472175598e-02,-8.115011267364025116e-03,5.896667949855327606e-03,-2.103347890079021454e-02,-2.933137305080890656e-02,1.718297041952610016e-02,-2.797982841730117798e-02,-2.329037897288799286e-02,1.035801507532596588e-02,5.220901686698198318e-03,-6.856596883153542876e-06,-1.142874080687761307e-02,1.433005742728710175e-02,-1.281698793172836304e-02,-1.127997785806655884e-02,-8.260982111096382141e-03,-1.614693086594343185e-03,2.452575974166393280e-02,-1.351698301732540131e-02,2.547620981931686401e-02,-2.669766917824745178e-02,3.160182386636734009e-02,-1.712410151958465576e-02,-3.038998693227767944e-02,-1.262236293405294418e-02,-5.584395956248044968e-03,5.589743610471487045e-03,-4.064367618411779404e-03,-3.937030956149101257e-02,-9.192509576678276062e-03,-1.122430246323347092e-02,-7.872849702835083008e-03,-3.482194617390632629e-02,6.362778134644031525e-03,-7.441927213221788406e-03,-2.708880603313446045e-02,-1.750835590064525604e-02,4.477206245064735413e-02,3.525223210453987122e-02,1.342157833278179169e-02,-8.810925297439098358e-03,4.768604878336191177e-03,2.233607321977615356e-02,1.254706829786300659e-02,-9.243100881576538086e-03,-1.628302619792521000e-03,-3.213421627879142761e-02,-2.199719846248626709e-02,1.148455776274204254e-02,7.625889033079147339e-03,-1.397750433534383774e-02,8.796640322543680668e-04,-2.367399446666240692e-02,2.290545497089624405e-03,2.282644249498844147e-02,-3.107310831546783447e-02,1.744460547342896461e-03,1.895732432603836060e-02,7.846093736588954926e-03,-2.194140851497650146e-02,-1.256228704005479813e-02,-1.251637190580368042e-02,-2.712876535952091217e-03,-2.059795893728733063e-02,-2.644433267414569855e-02,-2.613512100651860237e-03,-1.295860856771469116e-02,1.612018421292304993e-02,6.692501250654459000e-03,-3.851371118798851967e-03,-3.345358371734619141e-02,2.020486257970333099e-02,-1.456973049789667130e-02,3.980914596468210220e-03,-5.473631434142589569e-03,8.282213471829891205e-03,1.511658728122711182e-02,-2.246089652180671692e-02,-1.261757407337427139e-02,1.004927977919578552e-02,2.939748205244541168e-02,2.227569743990898132e-02,1.315927365794777870e-03,-2.583508379757404327e-02,-2.550552226603031158e-02,-5.704964511096477509e-03,4.587015602737665176e-03,-3.339221701025962830e-02,-2.272448502480983734e-03,-1.918045803904533386e-02,-3.042642958462238312e-02,2.681066095829010010e-02,2.128684893250465393e-02,-1.360010541975498199e-02,1.556724403053522110e-02,1.708416454493999481e-02,-3.250704333186149597e-02,2.640984207391738892e-02,-2.679735235869884491e-02,-1.906491001136600971e-03,1.107313949614763260e-02,9.696059860289096832e-03,-7.174343802034854889e-03,1.859552040696144104e-02,-3.311039507389068604e-02,7.708616554737091064e-03,2.634132280945777893e-02,-1.307688839733600616e-02,-1.760320179164409637e-02,1.859898678958415985e-02,-1.176724582910537720e-02,-1.938068494200706482e-02,2.617557533085346222e-02,-3.940866794437170029e-03,9.993461892008781433e-03,-2.477861940860748291e-02,1.229979097843170166e-03,2.010821551084518433e-02,8.608835749328136444e-03,-4.464046098291873932e-03,2.839126996695995331e-02,-1.173713896423578262e-02,-2.792902477085590363e-02,-6.386925000697374344e-03,3.167695552110671997e-02,-1.250034105032682419e-02,-3.315271437168121338e-02,1.383836264722049236e-03,1.559026166796684265e-02,6.377424579113721848e-03,-3.694167127832770348e-03,-1.818336546421051025e-02,-9.070402011275291443e-03,9.933144785463809967e-03,-2.330016158521175385e-02,-3.744165226817131042e-02,-2.366228960454463959e-02,-3.674100339412689209e-02,-1.463317871093750000e-02,6.600057240575551987e-03,-2.074247226119041443e-02,-1.393305324018001556e-02,6.439102813601493835e-03,2.524673566222190857e-02,1.405913475900888443e-02,-1.108332350850105286e-02,9.308543056249618530e-03,-1.270595751702785492e-02,1.543394103646278381e-02,3.830705303698778152e-03,-2.506817877292633057e-02,-1.998969586566090584e-03,6.842061877250671387e-03,-1.047720387578010559e-02,-1.001956989057362080e-03,-1.159062143415212631e-02,-1.885629072785377502e-02,3.889305889606475830e-02,-2.122456952929496765e-02,-1.650450006127357483e-02,-2.871230058372020721e-02,-3.055601939558982849e-02,-1.903611235320568085e-02,1.299280673265457153e-03,-1.431518886238336563e-02,-2.256986871361732483e-02,-5.103842820972204208e-03,-4.338358063250780106e-03,2.204573526978492737e-02,-2.654071897268295288e-02,2.183938026428222656e-02,-1.608271268196403980e-03,-1.457016263157129288e-02,-2.166329137980937958e-02,7.595137692987918854e-03,3.222797811031341553e-02,-1.662670262157917023e-02,2.437790110707283020e-02,-9.175802581012248993e-03,-2.146842330694198608e-02,5.029999883845448494e-04,1.143256388604640961e-02,-2.991405501961708069e-02,-2.015633694827556610e-02,2.160080242902040482e-03,3.947521001100540161e-02,-9.961863048374652863e-03,-1.992902159690856934e-02,-9.509092778898775578e-04,-8.811355568468570709e-03,1.334746740758419037e-02,1.773885451257228851e-02,-9.183396585285663605e-03,3.117243014276027679e-02,2.133417874574661255e-02,-1.185947004705667496e-02,-8.533929474651813507e-03,-1.044605206698179245e-02,3.603197261691093445e-02,-8.363579399883747101e-03,3.890612628310918808e-03,1.561822835355997086e-02,3.825288265943527222e-03,-2.914877794682979584e-02,3.909209277480840683e-03,-3.458284586668014526e-02,5.410651210695505142e-03,2.055652253329753876e-02,9.639282710850238800e-03,2.240565977990627289e-02,-1.728178746998310089e-02,-2.475832775235176086e-02,3.093667619396001101e-04,-5.889477208256721497e-03,1.300942059606313705e-02,-1.734473742544651031e-02,-1.653367094695568085e-02,-1.187224034219980240e-02,-2.406158857047557831e-02,2.287944778800010681e-02,-3.019314026460051537e-03,-2.916127676144242287e-03,5.960497539490461349e-03,-6.017198320478200912e-04,-1.720165647566318512e-02,-1.093177404254674911e-02,-3.125224262475967407e-02,1.538225915282964706e-02,-1.747076283209025860e-03,-1.290922518819570541e-02,3.329131379723548889e-02,7.999270223081111908e-03,-6.993431597948074341e-03,1.778157986700534821e-02,2.212335728108882904e-02,-2.376891858875751495e-02,-2.224062941968441010e-02,1.480314321815967560e-02,-4.198600072413682938e-03,-5.808875430375337601e-03,-1.627489738166332245e-02,2.310201339423656464e-02,2.362528583034873009e-03,-1.333578582853078842e-02,-6.122741848230361938e-03,-3.023118898272514343e-02,9.157263673841953278e-03,-6.671410053968429565e-03,2.087555266916751862e-02,-3.135470673441886902e-02,-1.165686920285224915e-02,-3.440025448799133301e-02,1.537192333489656448e-02,-4.327786341309547424e-02,-3.375533735379576683e-03,-1.434898283332586288e-02,-1.784247718751430511e-02,-1.161616109311580658e-02,2.804316766560077667e-02,-1.567669957876205444e-02,-4.803127143532037735e-03,-1.425835490226745605e-02,-8.956301957368850708e-03,3.542583808302879333e-02,9.501373395323753357e-03,-3.627742081880569458e-02,1.275820378214120865e-02,-3.380813822150230408e-02,-1.711504906415939331e-02,3.118630871176719666e-02,8.702809922397136688e-03,1.490948908030986786e-02,1.868907175958156586e-02,-5.877303774468600750e-04,-1.276768976822495461e-03,2.196505106985569000e-02,6.915587000548839569e-03,-1.081233471632003784e-02,-2.239776961505413055e-02,-1.683811657130718231e-02,9.843231178820133209e-03,-3.225766494870185852e-02,1.121695898473262787e-02,3.570168046280741692e-03,7.041580975055694580e-03,-1.999736996367573738e-03,2.164127118885517120e-02,-2.520568110048770905e-02,-1.125176716595888138e-02,-3.067333251237869263e-02,-2.406064653769135475e-03,1.928991265594959259e-02,-9.350958862341940403e-04,1.688337139785289764e-02,-2.702104300260543823e-02,2.898648381233215332e-02,1.612913794815540314e-02,-3.217963129281997681e-02,7.086871191859245300e-03,-4.134250804781913757e-02,2.041647443547844887e-03,1.552568841725587845e-02,1.738293282687664032e-02,-2.281233295798301697e-02,-2.116724289953708649e-02,-1.082120649516582489e-02,6.195811554789543152e-03,-9.414811618626117706e-03,2.541166171431541443e-02,-6.242354400455951691e-03,5.550287663936614990e-03,-3.694171085953712463e-02,3.562369570136070251e-02,2.652835845947265625e-02,-1.041354145854711533e-02,2.582075446844100952e-02,-2.795409783720970154e-02,-2.376308478415012360e-02,1.889992505311965942e-02,-1.155202742666006088e-02,7.736375555396080017e-03,-1.044008042663335800e-02,-2.108435146510601044e-02,1.046933326870203018e-02,-8.168568834662437439e-03,-7.022769190371036530e-03,-2.715167822316288948e-03,5.063182674348354340e-03,8.637011982500553131e-03,-4.302029963582754135e-03,-2.065921016037464142e-02,-2.170627936720848083e-03,2.792227081954479218e-02,1.855523325502872467e-02,-6.892671808600425720e-03,1.752926036715507507e-02,9.359158575534820557e-03,-2.383976243436336517e-02,-5.502759944647550583e-03,-3.469821996986865997e-03,-4.793101176619529724e-02,1.188399363309144974e-02,1.437792787328362465e-03,-1.504233386367559433e-02,-2.848233096301555634e-02,9.594298899173736572e-03,4.988662432879209518e-03,1.529327314347028732e-02,-2.386006672168150544e-04,-3.118626400828361511e-02,-2.362874522805213928e-02,2.415037900209426880e-02,1.481158379465341568e-02,-3.328237310051918030e-02,2.832356467843055725e-02,2.479911036789417267e-02,-1.531202159821987152e-02,2.088946104049682617e-02,1.585838198661804199e-02,1.317744236439466476e-02,-4.653118550777435303e-03,-2.348919957876205444e-02,-2.893899194896221161e-02,1.375707983970642090e-02,-2.450366318225860596e-02,-3.265612572431564331e-02,-3.568849712610244751e-02,3.169772028923034668e-02,-5.554732633754611015e-04,-5.314484238624572754e-03,1.092995237559080124e-02,1.088386215269565582e-02,-2.096312493085861206e-02,-9.683104581199586391e-04,7.587960455566644669e-03,-8.510063402354717255e-03,3.177937492728233337e-02,1.981154270470142365e-02,6.303641479462385178e-03,-9.070158004760742188e-03,-1.042659115046262741e-02,-1.056100893765687943e-02,-1.490690745413303375e-02,-3.917644545435905457e-02,-3.561036661267280579e-02,1.284055970609188080e-02,5.898251663893461227e-03,-3.464635089039802551e-02,2.190534956753253937e-02,-7.789592724293470383e-03,-2.645718120038509369e-02,-1.630341075360774994e-02,1.365858875215053558e-02,3.146553179249167442e-03,2.349995635449886322e-02,2.636016905307769775e-02,3.172473749145865440e-03,1.772048696875572205e-02,-1.309668738394975662e-02,2.164089586585760117e-03,-9.862808510661125183e-03,-3.714384883642196655e-02,1.541268732398748398e-02,1.194867212325334549e-02,1.846695877611637115e-02,-1.721622538752853870e-03,1.892225816845893860e-03,-1.299688499420881271e-02,6.463307072408497334e-04,1.088094059377908707e-02,2.039924077689647675e-02,2.150090597569942474e-02,-1.446955744177103043e-02,-7.579901139251887798e-04,2.829925715923309326e-02,2.433847263455390930e-02,1.345584634691476822e-02,-2.180619165301322937e-02,2.339816465973854065e-02,-1.058150641620159149e-02,-2.055414579808712006e-02,-1.376232132315635681e-02,-2.927588531747460365e-03,-4.088053852319717407e-02,-1.838910207152366638e-02,-1.841228827834129333e-02,-1.172012370079755783e-02,3.103624098002910614e-03,2.147888392210006714e-02,-8.563009090721607208e-03,-1.408220455050468445e-02,2.142563462257385254e-02,-1.214023120701313019e-02,1.639358699321746826e-02,-4.776149522513151169e-03,-5.424396134912967682e-03,-4.340675100684165955e-02,-1.565655134618282318e-02,1.568623818457126617e-02,-2.624278131406754255e-04,-1.622883975505828857e-02,2.110706269741058350e-02,-1.251121144741773605e-02,2.941279439255595207e-03,5.239030346274375916e-03,-1.481291558593511581e-02,-4.066930711269378662e-02,3.058604337275028229e-02,2.799420617520809174e-02,-2.274804189801216125e-02,9.601481258869171143e-03,6.551788188517093658e-03,-6.669117603451013565e-03,-3.268330823630094528e-03,-1.766926422715187073e-02,-1.591458544135093689e-02,-6.563747301697731018e-03,-2.286599716171622276e-03,-1.188352517783641815e-02,2.361298725008964539e-02,6.381214596331119537e-03,3.854095190763473511e-02,3.802866442129015923e-03,1.236137468367815018e-02,3.152453899383544922e-02,7.273728493601083755e-03,1.240520551800727844e-02,2.453094534575939178e-02,7.218881975859403610e-03,-1.334195584058761597e-02,-4.956920631229877472e-03,3.200167790055274963e-03,9.863919578492641449e-03,3.582977131009101868e-02,-2.125425077974796295e-02,-5.361795891076326370e-03,5.554961971938610077e-03,-1.223633997142314911e-02,-1.959519460797309875e-02,-3.674618899822235107e-02,-1.951003074645996094e-02,1.673211157321929932e-02,-3.521870821714401245e-02,7.601795252412557602e-03,2.063972533505875617e-05,-4.509321413934230804e-03,-2.571659628301858902e-03,-4.241692647337913513e-02,-2.238415181636810303e-02,2.393567701801657677e-03,3.129189088940620422e-02,-3.252065042033791542e-03,-1.964106783270835876e-02,-1.626292429864406586e-02,1.866623200476169586e-02,1.725850254297256470e-02,-1.359827700071036816e-03,-4.527105949819087982e-03,-1.088582677766680717e-03,5.523244384676218033e-03,-1.050892937928438187e-02,3.314667940139770508e-02,-4.052269458770751953e-02,-2.373838983476161957e-02,8.733345195651054382e-03,-1.233435515314340591e-02,4.896454513072967529e-03,1.053910143673419952e-02,-4.958524834364652634e-03,-1.480646547861397266e-03,-1.191652473062276840e-02,8.592102676630020142e-03,7.695885840803384781e-03,-2.665704641913180239e-06,3.325070813298225403e-02,-3.989714197814464569e-03,-1.644671522080898285e-02,7.842940278351306915e-03,-1.391852181404829025e-02,1.938700908794999123e-03,1.521397940814495087e-02,-2.114178612828254700e-02,-3.233520546928048134e-03,2.323577180504798889e-02,-2.132181636989116669e-02,-3.204681910574436188e-03,5.499830469489097595e-03,-2.774159237742424011e-02,-2.703122980892658234e-02,8.528508245944976807e-03,4.480497445911169052e-03,5.067794583737850189e-03,1.908260397613048553e-02,1.431913394480943680e-02,-4.134068638086318970e-02,2.155338879674673080e-03,1.568526588380336761e-02,1.365686114877462387e-02,3.313179360702633858e-03,-1.218434702605009079e-02,-8.486686274409294128e-03,-1.972441934049129486e-02,-2.764612901955842972e-03,-1.831347681581974030e-02,-2.391091734170913696e-02,-1.591694541275501251e-02,-3.697965526953339577e-03,-2.498454600572586060e-02,7.784540764987468719e-03,-5.783120170235633850e-03,-1.892482303082942963e-02,1.283909752964973450e-02,8.728634566068649292e-03,-4.480106011033058167e-02,-6.304050330072641373e-03,2.542613632977008820e-02,4.449814558029174805e-03,6.323236972093582153e-03,1.526808179914951324e-02,3.619554219767451286e-03,-2.227473072707653046e-02,-1.585949212312698364e-02,1.555016357451677322e-02,-2.417660690844058990e-02,2.912641130387783051e-02,1.972537487745285034e-02,-6.542487535625696182e-04,-4.074392840266227722e-02,3.668702905997633934e-03,1.989876106381416321e-02,-2.754175802692770958e-03,-2.855979278683662415e-02,-8.972418494522571564e-03,1.480446942150592804e-02,-2.094061300158500671e-02,-1.978532224893569946e-02,2.188243158161640167e-02,-4.799210466444492340e-03,1.017558854073286057e-02,-3.873082250356674194e-02,-1.381501555442810059e-02,2.167920581996440887e-02,1.765824109315872192e-02,-2.246521785855293274e-02,5.540594458580017090e-03,-1.254742499440908432e-02,-7.561620790511369705e-03,7.086831144988536835e-03,2.722377888858318329e-03,4.451788589358329773e-02,-1.753074675798416138e-02,2.327881939709186554e-02,4.750531807076185942e-04,-4.653424490243196487e-03,1.799523085355758667e-02,1.208857074379920959e-02,2.008938416838645935e-02,3.908044099807739258e-02,-8.680553175508975983e-03,2.836475335061550140e-02,3.325811401009559631e-02,-1.240140851587057114e-02,-2.292254474014043808e-03,-4.848132375627756119e-03,-4.555919076665304601e-05,4.551155958324670792e-03,3.901301184669137001e-03,-1.145371788879856467e-04,8.679807186126708984e-03,-6.435427814722061157e-03,1.877859607338905334e-02,-2.481347136199474335e-02,-1.384274289011955261e-02,-2.376668999204412103e-05,1.549880392849445343e-02,-3.262102603912353516e-02,-6.813394837081432343e-03,-1.221037842333316803e-02,-1.601345464587211609e-02,-1.480561122298240662e-02,5.531730130314826965e-03,1.595191098749637604e-02,1.147941802628338337e-03,1.500525232404470444e-02,1.787439547479152679e-02,1.166071556508541107e-02,9.529942646622657776e-03,-2.572555281221866608e-02,-5.892708431929349899e-03,-1.780573837459087372e-02,2.156949229538440704e-02,-3.154190722852945328e-03,5.645472090691328049e-03,-1.847422495484352112e-02,7.707544136792421341e-03,3.360122069716453552e-02,2.015762031078338623e-02,-1.036590430885553360e-02,2.568859979510307312e-02,2.458504168316721916e-03,-1.792501658201217651e-02,-3.701213374733924866e-02,-3.614659607410430908e-02,4.135104641318321228e-02,9.803748689591884613e-03,1.657637394964694977e-02,-1.337867602705955505e-02,-1.080079586245119572e-03,6.868616677820682526e-03,3.332628635689616203e-03,4.309116397053003311e-03,-1.846331916749477386e-02,-6.347042042762041092e-03,-1.734630321152508259e-03,-2.276077121496200562e-02,-1.532616838812828064e-02,2.352716214954853058e-02,-1.725593395531177521e-02,-3.645053878426551819e-02,-4.864395130425691605e-03,-1.950589753687381744e-02,1.395055651664733887e-02,1.789128966629505157e-02,3.975364845246076584e-03,1.687522232532501221e-02,1.227812096476554871e-02,2.067444846034049988e-02,3.318337351083755493e-02,-1.081958413124084473e-02,-3.056421689689159393e-02,1.103037223219871521e-02,-5.902860313653945923e-03,1.448464300483465195e-02,-1.660403679125010967e-03,3.185699228197336197e-03,1.255279756151139736e-03,1.319356262683868408e-02,3.140417113900184631e-02,1.976929837837815285e-03,-2.885154448449611664e-02,-1.085781492292881012e-02,-1.420615799725055695e-02,-8.525011129677295685e-03,1.106444932520389557e-02,-2.286519110202789307e-02,-2.096795290708541870e-02,-1.843221113085746765e-02,-6.194841116666793823e-03,-3.099892660975456238e-02,-7.415599189698696136e-03,-3.007760271430015564e-02,1.210515480488538742e-02,-2.073428407311439514e-02,-2.908042632043361664e-02,-2.304674312472343445e-02,-2.871432900428771973e-02,4.865834489464759827e-03,-3.020551055669784546e-02,9.981521405279636383e-03,-1.338140573352575302e-03,-3.137031197547912598e-02,-2.389583922922611237e-02,7.210107054561376572e-03,-9.750770404934883118e-03,9.352988563477993011e-03,-2.649362571537494659e-02,-2.292334102094173431e-02,-3.487869724631309509e-02,-3.639082610607147217e-02,-1.829052157700061798e-02,2.140169776976108551e-02,-1.684545353055000305e-02,3.389849513769149780e-02,-1.072842814028263092e-02,5.328868981450796127e-03,9.743709815666079521e-04,6.588844553334638476e-05,1.261911261826753616e-02,-4.090921953320503235e-03,-1.456895959563553333e-03,2.346292510628700256e-02,-2.061463706195354462e-02,-2.015847247093915939e-03,-5.062080454081296921e-03,1.751674152910709381e-02,-1.156830321997404099e-02,-1.346032135188579559e-03,-1.999149844050407410e-02,1.757336221635341644e-02,1.820015348494052887e-02,-5.457571242004632950e-03,-2.975284121930599213e-02,-4.688436537981033325e-02,-5.993692670017480850e-03,4.289801418781280518e-02,2.847407199442386627e-02,8.529020473361015320e-03,9.705013595521450043e-03,-2.439930662512779236e-02,2.273208834230899811e-02,7.340345764532685280e-04,-2.622218988835811615e-02,1.525274291634559631e-02,6.623483728617429733e-03,9.927522391080856323e-03,-1.302866265177726746e-02,-1.115592196583747864e-02,-1.837360672652721405e-02,2.896003797650337219e-02,-1.152066886425018311e-02,-6.669544149190187454e-03,1.347975712269544601e-02,1.043542381376028061e-02,3.034205920994281769e-02,-3.438440337777137756e-02,1.705832220613956451e-02,3.358623012900352478e-02,9.989505633711814880e-03,9.299362078309059143e-03,-2.971298806369304657e-02,-3.820133395493030548e-03,-9.613708592951297760e-03,-3.253484610468149185e-03,-1.716851443052291870e-02,-5.695871543139219284e-03,-1.580880838446319103e-03,-1.712465658783912659e-03,1.589903980493545532e-02,5.945419427007436752e-03,-3.424265608191490173e-02,-4.762478545308113098e-02,3.166476031765341759e-03,9.834986180067062378e-03,-3.776073828339576721e-02,-1.192652434110641479e-02,-1.327144354581832886e-02,-9.380930103361606598e-03,1.230008993297815323e-02,-2.925468608736991882e-02,4.720802418887615204e-03,-1.197922974824905396e-02,-1.075846422463655472e-02,-1.489947317168116570e-03,4.517008550465106964e-03,8.031560108065605164e-03,2.211812138557434082e-02,2.214692719280719757e-02,-1.006322260946035385e-02,-2.715081535279750824e-02,9.704121621325612068e-04,-2.177012525498867035e-02,-6.304152309894561768e-03,5.666021723300218582e-03,3.727524774149060249e-03,1.475530955940485001e-02,-8.140931837260723114e-03,1.032124087214469910e-02,-2.576994244009256363e-03,2.908696606755256653e-02,2.708895131945610046e-02,1.514546945691108704e-02,3.008616715669631958e-02,-1.965848542749881744e-02,2.532999403774738312e-02,-1.107319025322794914e-03,-2.642778272274881601e-04,1.670168898999691010e-02,2.635703794658184052e-02,2.777445688843727112e-02,3.995532169938087463e-03,-2.568880841135978699e-02,8.951007388532161713e-03,-3.116734139621257782e-02,1.492489245720207691e-03,-3.920274972915649414e-02,3.084097243845462799e-02,2.371857687830924988e-02,1.080658286809921265e-02,-3.758107125759124756e-02,6.780741736292839050e-03,-9.032308124005794525e-03,2.778423018753528595e-02,-2.267255820333957672e-02,1.707243919372558594e-02,-1.693057268857955933e-02,-3.062251396477222443e-02,1.655217446386814117e-02,-1.445803791284561157e-02,-2.084764093160629272e-02,3.239175770431756973e-03,-1.647943258285522461e-02,2.479106746613979340e-02,3.578368341550230980e-03,2.095792256295681000e-02,3.726020082831382751e-02,2.152339182794094086e-02,-1.477859728038311005e-02,-8.466305211186408997e-03,-3.066475130617618561e-02,-1.345184352248907089e-02,1.878176000900566578e-03,-3.468151018023490906e-02,1.248891651630401611e-02,2.812114916741847992e-02,-1.998904626816511154e-03,1.860605925321578979e-02,-9.081931784749031067e-03,-2.014610171318054199e-02,1.551952026784420013e-02,-2.948615141212940216e-02,3.615175932645797729e-02,3.638164838775992393e-03,-1.922315359115600586e-02,5.137487314641475677e-03,-1.924022659659385681e-02,-7.845295593142509460e-03,1.336376735707744956e-04,8.688886649906635284e-03,2.886935137212276459e-02,-2.735683228820562363e-03,5.239322781562805176e-03,-1.900861412286758423e-02,4.019799828529357910e-02,2.759645879268646240e-02,-1.188298314809799194e-02,-2.629267983138561249e-02,-1.300424057990312576e-02,-1.991806784644722939e-03,6.648473441600799561e-03,1.026990450918674469e-02,-1.609889417886734009e-02,1.222708448767662048e-02,6.921030115336179733e-03,5.121504887938499451e-03,-2.117753960192203522e-02,-2.405842766165733337e-02,-4.473616834729909897e-03,-1.068528275936841965e-02,-2.859110385179519653e-02,-3.829604014754295349e-02,-1.481525413691997528e-02,-4.385537654161453247e-02,-2.709640748798847198e-02,1.019401196390390396e-02,-1.384648960083723068e-02,6.595639977604150772e-03,4.018301889300346375e-02,-1.931918412446975708e-02,-2.453026920557022095e-02,-8.938615210354328156e-03,2.073635719716548920e-02,-3.673595935106277466e-02,2.726789936423301697e-02,-1.466514356434345245e-02,-1.539530511945486069e-02,2.450994588434696198e-02,2.836631145328283310e-03,-1.912453770637512207e-02,-2.097621187567710876e-02,-5.041819065809249878e-03,-2.741687372326850891e-02,-5.523614585399627686e-03,8.247554302215576172e-03,9.594342671334743500e-03,1.424028654582798481e-03,1.586931198835372925e-02,-2.468583872541785240e-03,1.533725298941135406e-02,-1.040449645370244980e-02,-3.101240610703825951e-03,1.563059724867343903e-02,3.445782698690891266e-03,2.050003036856651306e-02,2.312483079731464386e-02,-2.226308360695838928e-02,-2.866131719201803207e-03,-4.074243362993001938e-03,1.339183095842599869e-02,2.270842669531702995e-03,-3.205513581633567810e-03,-2.362966164946556091e-02,2.695642970502376556e-02,-1.039990410208702087e-02,-5.531805101782083511e-03,5.517489276826381683e-03,-6.334711331874132156e-03,7.282821461558341980e-03,-2.175637288019061089e-03,-6.316277198493480682e-03,-1.606322266161441803e-02,2.594767324626445770e-02,9.607499465346336365e-03,-6.599151995033025742e-03,-1.344482973217964172e-02,5.417351610958576202e-03,2.785677090287208557e-02,3.466888517141342163e-02,1.395290624350309372e-02,1.808458939194679260e-02,-2.871347218751907349e-02,-4.102614149451255798e-02,-2.344487793743610382e-02,-2.595746991573832929e-05,-2.934257732704281807e-03,-3.135646507143974304e-02,-1.639915071427822113e-02,-3.195984056219458580e-03,-1.562103722244501114e-02,-9.812380187213420868e-03,9.627695195376873016e-03,8.288023062050342560e-03,6.504169199615716934e-03,2.211308572441339493e-03,-1.591229811310768127e-02,-1.533522643148899078e-02,1.766367070376873016e-02,-2.987510897219181061e-02,-3.383555635809898376e-02,-2.598513849079608917e-02,1.156301423907279968e-02,-1.692543551325798035e-02,2.226522378623485565e-02,-1.123016327619552612e-02,-2.329522557556629181e-02,-1.256804820150136948e-02,-2.723499201238155365e-02,-4.996296949684619904e-03,5.798947066068649292e-03,9.452914819121360779e-03,9.136555716395378113e-03,2.037212252616882324e-02,-2.524114400148391724e-02,4.279113840311765671e-03,-2.348462305963039398e-02,2.724129520356655121e-02,-8.766516111791133881e-03,6.610433105379343033e-03,-6.329573225229978561e-03,1.123556494712829590e-02,-3.125294297933578491e-02,-4.969247151166200638e-03,-1.519219577312469482e-02,-1.171897724270820618e-02,-2.360001020133495331e-02,2.587493136525154114e-02,1.021514087915420532e-02,1.651498675346374512e-02,1.286202343180775642e-03,-3.094375506043434143e-02,-1.244697533547878265e-02,-4.530011489987373352e-02,5.953294457867741585e-04,-5.053149536252021790e-03,-1.059071812778711319e-02,-1.962912455201148987e-02,2.968225628137588501e-02,2.973996289074420929e-02,6.605892907828092575e-03,3.069288842380046844e-02,3.097353503108024597e-02,-1.382844429463148117e-02,-2.469367580488324165e-03,-2.648118650540709496e-03,-2.735386788845062256e-02,3.341791406273841858e-02,-2.346915379166603088e-02,-1.576458662748336792e-02,-1.664690300822257996e-02,-2.566192671656608582e-02,-5.865977145731449127e-03,9.637856855988502502e-03,3.568007610738277435e-03,2.525619231164455414e-02,-1.245180517435073853e-02,-9.610122069716453552e-03
1.264348509721457958e-03,-1.995306927710771561e-03,-1.516211777925491333e-03,-1.718988269567489624e-02,-5.629605147987604141e-03,1.037060935050249100e-02,-5.545398592948913574e-02,1.442051120102405548e-02,2.650431916117668152e-02,7.433714345097541809e-03,-1.755667850375175476e-02,-2.241003699600696564e-02,2.974341856315732002e-03,-1.478126738220453262e-02,-3.507999936118721962e-03,8.947726339101791382e-03,-2.354473434388637543e-02,-4.424114525318145752e-02,2.726771868765354156e-03,-1.937461271882057190e-02,2.551840990781784058e-02,1.639231853187084198e-02,-1.944518834352493286e-02,-2.067309245467185974e-02,-2.980330493301153183e-03,-3.551785647869110107e-02,2.151546813547611237e-02,-2.983338572084903717e-02,-6.826376542448997498e-03,-4.159827530384063721e-02,-2.142889611423015594e-02,-3.292016685009002686e-03,1.837529987096786499e-02,6.524252239614725113e-03,-2.795577235519886017e-02,-3.802126273512840271e-03,-5.414379993453621864e-04,1.984110847115516663e-02,2.043706737458705902e-02,-4.231555014848709106e-02,-6.625935435295104980e-03,6.557196378707885742e-03,-1.833192631602287292e-02,-3.643084689974784851e-02,-1.467720977962017059e-02,-1.521309651434421539e-02,3.808433935046195984e-02,-2.986365742981433868e-02,1.299356203526258469e-02,-3.778976574540138245e-02,3.559871017932891846e-02,1.827044971287250519e-02,-1.592632569372653961e-02,4.880643682554364204e-04,1.880315132439136505e-02,-1.385558117181062698e-02,-3.174624219536781311e-02,1.330354902893304825e-02,1.372352107864571735e-05,-1.847213692963123322e-02,-1.328389858826994896e-03,-5.940139759331941605e-03,-6.758455652743577957e-03,3.520073601976037025e-03,-4.918581806123256683e-03,-3.190238773822784424e-02,-1.214007474482059479e-02,4.088100045919418335e-03,1.104108057916164398e-02,3.161195293068885803e-02,-1.641608960926532745e-02,4.918357357382774353e-03,6.715041763527551666e-06,-5.169692449271678925e-03,-6.444088183343410492e-03,2.461454644799232483e-02,-1.057888730429112911e-03,5.851879715919494629e-03,-8.151132613420486450e-03,-1.244866941124200821e-02,1.131016947329044342e-02,-3.352034091949462891e-02,1.266997307538986206e-02,2.026303112506866455e-02,-3.909702971577644348e-02,-6.061953958123922348e-03,2.541802125051617622e-03,-1.646026782691478729e-02,-1.673183962702751160e-02,1.529183425009250641e-02,-1.489144098013639450e-02,-6.943963933736085892e-03,-7.775782607495784760e-03,1.566524989902973175e-02,-2.627809718251228333e-02,1.970637775957584381e-02,-2.869597868993878365e-03,-2.163715101778507233e-02,-1.681819185614585876e-02,1.696549169719219208e-02,-3.473919630050659180e-02,2.356182038784027100e-02,-1.819668151438236237e-02,1.056582480669021606e-02,-1.708270423114299774e-02,-2.055000141263008118e-02,-2.334753237664699554e-02,1.662943139672279358e-02,-2.235988900065422058e-02,-1.606625318527221680e-02,-4.207562655210494995e-02,5.883929319679737091e-03,-1.606189645826816559e-02,-1.296270079910755157e-02,1.257652300409972668e-03,2.243315055966377258e-02,1.376802287995815277e-02,-3.314197808504104614e-02,4.436448216438293457e-03,-2.403570897877216339e-02,-1.241159392520785332e-03,-9.084897115826606750e-03,1.370320748537778854e-02,-2.763117477297782898e-02,-2.025332488119602203e-02,-9.931173175573348999e-03,-1.674794405698776245e-02,5.741866305470466614e-03,-3.715751692652702332e-02,-1.551897614262998104e-03,2.701907418668270111e-02,-1.754062995314598083e-02,8.192793466150760651e-03,-1.204926893115043640e-02,-2.049953676760196686e-02,-6.425419822335243225e-03,-2.213012799620628357e-02,-6.879888940602540970e-03,1.154378522187471390e-02,-3.130055963993072510e-02,-1.446931809186935425e-02,2.222447097301483154e-02,5.972897633910179138e-03,3.278762102127075195e-02,-1.705943420529365540e-02,1.924113184213638306e-02,-1.292331051081418991e-02,-1.684391498565673828e-02,-2.937398292124271393e-02,6.098668556660413742e-03,2.013743110001087189e-02,-4.418036714196205139e-02,1.413942663930356503e-03,-1.571237854659557343e-02,-6.259467918425798416e-03,1.057091075927019119e-02,4.359555430710315704e-03,-9.221077896654605865e-03,-2.968546003103256226e-03,-2.847586944699287415e-02,3.455988131463527679e-03,9.444138035178184509e-03,-4.231503233313560486e-03,8.471466600894927979e-03,4.557546053547412157e-04,-2.511006966233253479e-02,2.474747784435749054e-02,-1.748174801468849182e-02,-4.872370976954698563e-03,1.260233577340841293e-02,2.812203019857406616e-02,-1.856336370110511780e-02,1.585535518825054169e-02,1.237744931131601334e-02,2.627279609441757202e-03,-5.770322401076555252e-03,1.649461337365210056e-03,-2.027082443237304688e-02,4.992475733160972595e-03,-1.178459264338016510e-03,8.108255453407764435e-03,-8.323226124048233032e-03,1.197306811809539795e-02,-1.518790260888636112e-03,6.184448488056659698e-03,7.997200824320316315e-03,3.425643080845475197e-03,-2.966932952404022217e-02,-3.667573258280754089e-02,-1.822802983224391937e-02,-2.512539178133010864e-02,7.766848895698785782e-03,1.886120066046714783e-02,1.592002809047698975e-03,-2.116926200687885284e-02,-1.755706034600734711e-02,1.669378764927387238e-02,-1.128094503656029701e-03,7.622098084539175034e-03,8.909032680094242096e-03,-1.717534102499485016e-02,3.004083737323526293e-05,4.855964507441967726e-04,1.855820231139659882e-02,9.200022555887699127e-03,-7.437990512698888779e-03,2.592817414551973343e-03,6.072080694139003754e-03,-1.682375185191631317e-02,2.061103470623493195e-02,8.701069280505180359e-03,-1.651895046234130859e-02,-8.456795476377010345e-03,-2.434262260794639587e-02,-2.347274217754602432e-03,2.539744134992361069e-03,2.270253375172615051e-02,-5.684962030500173569e-03,-3.370535746216773987e-02,6.305546034127473831e-03,1.795763149857521057e-02,1.131307706236839294e-02,2.188025601208209991e-02,1.825837232172489166e-02,4.376052878797054291e-03,-2.713392861187458038e-02,-3.524184599518775940e-02,-2.230945043265819550e-02,-2.590974792838096619e-03,5.087101832032203674e-03,-7.298734970390796661e-03,-2.278024796396493912e-03,-3.596667945384979248e-02,1.972578465938568115e-02,-4.783271253108978271e-02,3.752454370260238647e-02,1.201672945171594620e-02,9.205518290400505066e-03,-1.113434974104166031e-02,5.725118331611156464e-03,-2.385104820132255554e-02,-8.843699470162391663e-03,1.392886973917484283e-02,7.285240106284618378e-03,1.833904348313808441e-02,-4.629415459930896759e-03,5.774106830358505249e-04,2.469375729560852051e-03,2.477382775396108627e-03,-8.477120660245418549e-03,-4.946298431605100632e-03,-2.174525754526257515e-03,-2.671183831989765167e-02,-2.995529398322105408e-02,3.132191672921180725e-02,3.203626722097396851e-02,1.395436003804206848e-02,-2.215326065197587013e-03,1.056223455816507339e-02,-2.350346418097615242e-03,-3.640663344413042068e-03,-8.580159395933151245e-03,-2.780882455408573151e-02,-1.399133540689945221e-02,4.674610495567321777e-02,-1.093777362257242203e-03,-3.340361639857292175e-02,3.679158538579940796e-02,-4.196337237954139709e-02,1.305276341736316681e-02,-3.915301710367202759e-02,1.716945320367813110e-02,1.146468892693519592e-02,3.087738296017050743e-04,1.784016378223896027e-02,-2.952301315963268280e-02,9.384599514305591583e-03,-1.066585350781679153e-02,7.887642830610275269e-03,-5.439809057861566544e-03,-1.200131839141249657e-03,3.589866682887077332e-02,7.957871071994304657e-03,-6.636109319515526295e-04,1.812387071549892426e-02,2.998856455087661743e-02,2.929816395044326782e-02,9.236789308488368988e-03,2.205886505544185638e-02,-5.171858239918947220e-03,1.878197491168975830e-02,6.743174977600574493e-03,6.381583516485989094e-04,8.035442791879177094e-03,-1.673747599124908447e-02,-1.254876237362623215e-02,1.657922752201557159e-02,2.619625069200992584e-02,-1.302290474995970726e-03,-8.591590449213981628e-03,2.062596939504146576e-02,5.043236538767814636e-03,-2.987998165190219879e-02,-3.898223862051963806e-02,-3.735971823334693909e-02,-4.816211760044097900e-03,-4.833810031414031982e-03,-1.318114809691905975e-02,-1.606553234159946442e-02,1.065147947520017624e-02,-3.177208825945854187e-02,1.559781562536954880e-02,4.912504460662603378e-03,2.968857437372207642e-02,-1.784662599675357342e-03,1.453906577080488205e-02,-1.837887428700923920e-02,-4.474013112485408783e-03,-1.656203903257846832e-02,2.788594551384449005e-02,1.304338220506906509e-03,1.597038120962679386e-03,1.503943745046854019e-02,-4.004613310098648071e-02,-3.829036373645067215e-03,1.447409763932228088e-02,4.927640315145254135e-03,5.576209630817174911e-03,8.713301504030823708e-04,-4.575254861265420914e-03,-3.791468963027000427e-02,3.338634967803955078e-02,1.108434144407510757e-02,1.745669916272163391e-02,-1.936003379523754120e-02,1.442422717809677124e-02,-7.953541353344917297e-03,-1.871586591005325317e-02,-1.382638327777385712e-02,-9.983160533010959625e-03,-2.260095626115798950e-02,-1.317904610186815262e-02,-2.530758082866668701e-02,4.505736008286476135e-02,2.328822948038578033e-02,-7.603501901030540466e-03,-2.138809114694595337e-02,-3.235523588955402374e-03,-4.921720363199710846e-03,-1.903562061488628387e-02,1.254374254494905472e-02,-2.795964479446411133e-02,1.694354228675365448e-02,1.302343700081110001e-02,-2.959063462913036346e-02,-3.763716958928853273e-04,-9.348729625344276428e-03,-1.858598552644252777e-02,-3.495647013187408447e-02,1.336847199127078056e-03,1.291193347424268723e-02,-1.318467035889625549e-02,2.199208177626132965e-02,1.045978907495737076e-02,-3.094987198710441589e-02,2.261571772396564484e-02,-1.887557841837406158e-02,1.013174280524253845e-02,-1.130786910653114319e-02,-1.563779450953006744e-02,-3.579327138140797615e-03,2.084762975573539734e-02,-5.232859402894973755e-03,-9.140269830822944641e-03,3.382602008059620857e-03,-2.357028424739837646e-02,-1.911037601530551910e-02,2.403067238628864288e-02,-3.994829021394252777e-03,7.011730689555406570e-03,-4.436347633600234985e-02,-2.690380252897739410e-02,-5.781259387731552124e-03,6.019473541527986526e-03,-3.399882465600967407e-02,-5.526162683963775635e-03,-4.264100920408964157e-03,4.465166013687849045e-03,7.642946206033229828e-03,8.598737418651580811e-03,-3.307928098365664482e-03,-3.405556082725524902e-02,3.845393192023038864e-03,2.421303465962409973e-02,-9.017194621264934540e-03,8.555241860449314117e-03,-7.507587783038616180e-03,3.052218072116374969e-02,6.777574773877859116e-03,-6.173953413963317871e-03,-5.159709602594375610e-03,-9.379407390952110291e-03,-1.793954335153102875e-02,2.435409463942050934e-02,3.246517851948738098e-02,-2.549098432064056396e-02,-9.407422505319118500e-03,1.258880738168954849e-02,2.287198090925812721e-03,1.176355592906475067e-02,-7.375601679086685181e-03,-3.459902107715606689e-02,-3.648287802934646606e-02,1.365613378584384918e-02,3.585878759622573853e-02,-1.174677256494760513e-02,2.882287465035915375e-02,-2.417660318315029144e-02,-3.201124072074890137e-02,2.368462271988391876e-03,8.028932847082614899e-03,-1.278401352465152740e-02,-1.639695838093757629e-02,2.388998633250594139e-03,-2.083635516464710236e-02,-4.532675724476575851e-03,-2.551271114498376846e-03,1.475824974477291107e-04,-6.183211691677570343e-03,1.444088108837604523e-02,-2.336755208671092987e-02,8.586435578763484955e-03,-2.027369290590286255e-02,-2.386013977229595184e-02,-3.152557462453842163e-02,-5.436118692159652710e-03,-2.996525354683399200e-02,-6.492621731013059616e-03,2.606321498751640320e-02,-2.345141395926475525e-02,-3.878257051110267639e-02,-3.810436278581619263e-02,-1.992544531822204590e-02,-2.337627299129962921e-02,-1.072983723133802414e-03,-4.585609212517738342e-02,1.511490158736705780e-02,-3.483566269278526306e-02,2.021515741944313049e-02,3.847305849194526672e-02,-1.086787972599267960e-02,-4.471262916922569275e-02,-6.990097463130950928e-03,-1.637624762952327728e-02,-7.758339401334524155e-03,2.081286348402500153e-02,-1.206880714744329453e-02,-2.072853595018386841e-02,-1.632324792444705963e-02,-2.790472842752933502e-02,-1.488714758306741714e-02,-1.808003522455692291e-02,1.920717209577560425e-02,1.110768131911754608e-02,-2.652492548804730177e-04,2.703470177948474884e-03,7.626602891832590103e-03,1.796271093189716339e-02,5.532774608582258224e-03,-2.924201823770999908e-02,2.974186465144157410e-02,2.866262756288051605e-02,-1.683668047189712524e-02,1.906169764697551727e-02,6.869927514344453812e-03,8.469653315842151642e-03,1.385411992669105530e-02,2.782815881073474884e-02,1.955383777385577559e-04,1.279510208405554295e-03,-3.824840113520622253e-02,-1.113419979810714722e-02,-6.691648159176111221e-03,5.114869563840329647e-04,-9.744900278747081757e-03,6.644291803240776062e-03,3.475815057754516602e-02,-7.854076102375984192e-03,2.595413289964199066e-02,-1.647092215716838837e-02,1.697127521038055420e-02,-3.258457779884338379e-02,-4.207435064017772675e-03,-2.315819822251796722e-02,1.699383929371833801e-02,-3.673169063404202461e-03,-1.075109350495040417e-03,2.199266292154788971e-02,2.468916960060596466e-02,-1.285560522228479385e-02,-1.087418571114540100e-02,-2.412984706461429596e-02,6.938607897609472275e-03,-5.280408076941967010e-03,-2.179430797696113586e-02,-2.251079119741916656e-02,-8.431764319539070129e-03,2.119862660765647888e-02,-2.025474049150943756e-02,1.928860880434513092e-02,1.488956622779369354e-02,2.775175683200359344e-02,3.534808754920959473e-02,-9.452908299863338470e-03,-1.257216744124889374e-02,1.547762006521224976e-02,-1.044308952987194061e-02,-2.984442515298724174e-03,1.282353606075048447e-02,-2.001674659550189972e-02,1.427023392170667648e-02,-1.084773987531661987e-02,-1.484196074306964874e-02,-1.899793557822704315e-02,-2.391175925731658936e-02,-2.901169471442699432e-02,1.184277515858411789e-02,-2.661030041053891182e-03,-2.338645607233047485e-02,3.590596839785575867e-02,-1.238039694726467133e-02,-7.047630497254431248e-04,1.074767950922250748e-02,-3.890104219317436218e-02,7.666598074138164520e-03,6.600302178412675858e-03,-9.070366621017456055e-03,-8.708591572940349579e-03,2.614450827240943909e-02,2.298738434910774231e-02,7.281946483999490738e-03,2.541315741837024689e-02,-7.490683812648057938e-03,1.392888184636831284e-02,1.991578564047813416e-02,-4.313497804105281830e-03,-2.453973051160573959e-03,-1.456048432737588882e-02,-4.945284500718116760e-02,-2.205527387559413910e-02,-2.518742904067039490e-02,-3.841171413660049438e-02,-1.740697305649518967e-03,-7.526301313191652298e-03,-1.794109120965003967e-02,2.856297604739665985e-02,2.158133685588836670e-02,9.902540594339370728e-03,2.411989122629165649e-02,1.803478575311601162e-03,2.786437794566154480e-02,-2.589310146868228912e-02,8.259490714408457279e-04,-9.295042604207992554e-03,-1.144439075142145157e-02,-3.153828531503677368e-02,-1.315239001996815205e-03,-1.666696183383464813e-02,1.394979842007160187e-02,1.026455778628587723e-02,-2.826109156012535095e-02,1.417888700962066650e-02,-8.647300419397652149e-04,-4.790082573890686035e-02,-2.207004837691783905e-02,1.659702882170677185e-02,3.644207119941711426e-02,4.964919644407927990e-04,2.381875738501548767e-02,8.204721845686435699e-03,-2.347725443542003632e-02,-2.479435410350561142e-03,-3.823043778538703918e-02,-1.104457955807447433e-02,2.695669978857040405e-02,-1.086743455380201340e-02,5.018773674964904785e-02,1.320158690214157104e-02,-1.754486002027988434e-02,-2.879235707223415375e-02,-9.194126352667808533e-03,-2.445728145539760590e-02,-2.245565690100193024e-02,4.765850957483053207e-03,-5.783272907137870789e-03,2.551313675940036774e-02,2.655114606022834778e-02,6.323133129626512527e-03,-1.003886107355356216e-02,1.886245608329772949e-02,5.602925666607916355e-04,-1.929958816617727280e-03,-5.795167759060859680e-03,1.794844679534435272e-02,-4.117169417440891266e-03,3.128430398646742105e-04,1.612230762839317322e-02,-2.252472005784511566e-02,-4.001057520508766174e-02,-1.591842994093894958e-02,-3.127788379788398743e-02,-4.780027084052562714e-03,-3.269843384623527527e-02,3.044618107378482819e-02,2.004753798246383667e-02,-1.720019057393074036e-02,1.410676981322467327e-03,3.744254587218165398e-03,-2.022833563387393951e-02,1.697350293397903442e-02,-4.078274220228195190e-02,3.479295223951339722e-02,-6.201528012752532959e-04,-9.350049309432506561e-03,-1.158936042338609695e-02,2.435202943161129951e-03,-3.829328343272209167e-03,-2.018504217267036438e-02,-1.347629912197589874e-02,-1.578860543668270111e-02,-4.037302732467651367e-02,-1.083130389451980591e-02,1.086225826293230057e-02,-1.034312415868043900e-02,-3.688901662826538086e-03,7.895489223301410675e-03,9.682134725153446198e-03,-5.915278103202581406e-03,2.097199484705924988e-02,3.626286284998059273e-03,-1.026732102036476135e-02,-7.563026621937751770e-03,-3.352207317948341370e-02,3.087228722870349884e-02,-2.312497980892658234e-02,4.710027016699314117e-03,9.257171303033828735e-03,-1.756820455193519592e-02,-4.450942203402519226e-02,3.470344841480255127e-02,-1.990657113492488861e-02,1.966587267816066742e-02,-1.884063472971320152e-03,1.111748721450567245e-02,-2.616243809461593628e-02,-1.793417707085609436e-02,2.089358633384108543e-03,9.044500999152660370e-03,-5.847777239978313446e-03,-1.692455634474754333e-02,-3.863118763547390699e-04,6.163880228996276855e-03,2.521459828130900860e-04,-1.225307490676641464e-02,-7.698406465351581573e-03,9.564448148012161255e-03,6.716086529195308685e-03,-8.456103387288749218e-04,-1.625325158238410950e-02,-1.840777695178985596e-02,2.378882095217704773e-02,-6.795085966587066650e-03,-1.263023540377616882e-02,-2.324209548532962799e-03,-9.796081576496362686e-04,-4.746711999177932739e-02,-3.593249479308724403e-03,5.489867908181622624e-05,2.757254987955093384e-03,1.101381611078977585e-02,7.800786755979061127e-03,-2.204607427120208740e-02,-2.723941765725612640e-02,1.144829392433166504e-02,4.186024516820907593e-02,-4.045668989419937134e-02,7.171493023633956909e-03,-3.019949235022068024e-02,-1.763520203530788422e-02,1.062412653118371964e-02,-1.738389767706394196e-02,-9.797759354114532471e-03,1.078446116298437119e-02,-3.153312206268310547e-02,1.044560503214597702e-02,-9.061897173523902893e-03,-2.126239985227584839e-02,-1.110699120908975601e-02,-5.845802370458841324e-03,-1.309421751648187637e-02,8.519809693098068237e-03,6.423669401556253433e-03,-4.656564816832542419e-02,-2.837139926850795746e-02,-2.320839650928974152e-02,4.592209588736295700e-03,3.975095227360725403e-02,-2.469409629702568054e-02,3.329771384596824646e-02,-1.609132997691631317e-02,-2.546038106083869934e-02,7.533255848102271557e-04,8.721565827727317810e-03,4.338182770879939198e-05,1.382259279489517212e-02,-4.587422683835029602e-02,2.198006492108106613e-03,-3.447188436985015869e-02,-9.298721328377723694e-03,-8.794969879090785980e-03,-9.938880801200866699e-03,-1.601877808570861816e-02,1.860573329031467438e-02,1.540647004730999470e-03,-3.016892587766051292e-03,2.694357186555862427e-02,4.537633154541254044e-03,-1.352496095933020115e-03,-2.504409523680806160e-03,-1.210689358413219452e-02,-3.165822243317961693e-03,2.209356799721717834e-02,4.480520728975534439e-03,-1.745760999619960785e-02,-4.394894838333129883e-02,-7.098199333995580673e-03,4.188690800219774246e-03,-1.456262078136205673e-02,-3.069584257900714874e-03,-8.722271770238876343e-03,-3.774839639663696289e-02,-1.883083023130893707e-02,-1.063375920057296753e-02,-1.425974816083908081e-02,-1.237228233367204666e-02,1.240910682827234268e-02,-1.671841368079185486e-02,-2.583209611475467682e-02,4.323842003941535950e-03,3.276407078374177217e-04,-4.363155458122491837e-03,-1.128392294049263000e-02,3.346845740452408791e-03,-1.512905117124319077e-02,-1.957594044506549835e-02,-1.006956584751605988e-02,-3.365315264090895653e-03,-1.298732968280091882e-04,1.857109740376472473e-02,4.562021046876907349e-02,1.286141574382781982e-02,1.142194774001836777e-02,-1.988481730222702026e-02,-1.321980729699134827e-02,-3.301822394132614136e-02,3.214147686958312988e-02,1.154569722712039948e-02,-5.905979196541011333e-04,2.594255656003952026e-02,8.431091904640197754e-03,5.233529023826122284e-03,5.480819381773471832e-03,-7.454066071659326553e-04,8.881034329533576965e-03,3.127533569931983948e-02,1.992158032953739166e-02,-1.515882206149399281e-03,-1.523398887366056442e-02,-6.303191650658845901e-03,-4.314675927162170410e-03,1.652302965521812439e-02,1.650612242519855499e-02,9.121731854975223541e-03,-6.884428206831216812e-03,-4.123586695641279221e-03,6.429924396798014641e-04,2.780123054981231689e-02,2.096054330468177795e-02,-2.703586965799331665e-02,1.954771578311920166e-02,-1.046738401055335999e-02,1.365845091640949249e-02,1.679286174476146698e-02,3.329799324274063110e-02,-1.699429564177989960e-02,-3.274776681791990995e-04,-3.247207775712013245e-02,-2.425184287130832672e-02,1.560248347232118249e-04,1.804729737341403961e-02,-5.838461220264434814e-03,-3.857015445828437805e-02,4.263623058795928955e-02,-8.404474356211721897e-04,3.829304128885269165e-02,-1.966833882033824921e-02,1.078486349433660507e-02,-1.273706275969743729e-02,-6.805241573601961136e-03,-1.972498930990695953e-02,-2.789144590497016907e-02,-6.011907942593097687e-03,-3.961569629609584808e-03,3.102902695536613464e-02,3.034185850992798805e-03,2.471607178449630737e-03,1.970667205750942230e-02,2.247205004096031189e-02,-7.983482442796230316e-03,5.213705357164144516e-03,-7.791093084961175919e-03,3.916497807949781418e-03,-3.731878474354743958e-02,-1.370225567370653152e-03,2.000551111996173859e-02,-4.908862058073282242e-03,8.800148963928222656e-03,-4.574037156999111176e-03,2.685144310817122459e-03,-2.972324751317501068e-02,2.758543007075786591e-02,-1.715819723904132843e-02,1.181710697710514069e-02,-9.915560483932495117e-03,-1.284293923527002335e-02,-1.024603843688964844e-02,-1.686551421880722046e-02,-2.066370658576488495e-02,-2.578743966296315193e-03,1.688337139785289764e-02,1.795525848865509033e-02,-2.485699020326137543e-02,-3.680771449580788612e-03,9.707612916827201843e-04,3.028103709220886230e-02,-9.038558229804039001e-03,-2.028596960008144379e-02,-1.297468319535255432e-02,4.247208125889301300e-04,-4.162125661969184875e-02,-1.865694113075733185e-02,2.660834416747093201e-02,-3.245833888649940491e-02,3.354810923337936401e-02,1.984366029500961304e-02,-4.201379045844078064e-02,-2.393970452249050140e-02,-4.088464658707380295e-03,1.481450907886028290e-02,-2.976352116093039513e-03,-3.867425769567489624e-02,-2.582428418099880219e-02,1.257441006600856781e-02,-1.211216021329164505e-02,2.848511561751365662e-02,-2.672147005796432495e-02,1.502233650535345078e-02,8.248667232692241669e-03,2.016055397689342499e-02,-1.081446558237075806e-02,-3.365450352430343628e-02,1.526533043943345547e-03,-1.568461954593658447e-02,-5.940239503979682922e-02,2.111660130321979523e-02,-1.653306558728218079e-02,1.922477036714553833e-02,1.853732764720916748e-02,-4.105726256966590881e-03,2.756571862846612930e-03,-2.213032729923725128e-02,1.554708555340766907e-02,4.565465264022350311e-03,-1.036422513425350189e-02,2.764413878321647644e-02,-1.541393343359231949e-03,-3.551955521106719971e-02,-2.819477021694183350e-02,-8.490517735481262207e-03,1.295055262744426727e-02,3.296840563416481018e-02,1.524221617728471756e-02,1.224828511476516724e-02,1.816739328205585480e-02,-1.331291906535625458e-02,-2.446100302040576935e-02,-3.304551914334297180e-02,-2.265118807554244995e-02,-2.915810421109199524e-02,3.939890116453170776e-02,-2.960352227091789246e-02,2.951699495315551758e-02,-2.138323523104190826e-02,-3.762120148167014122e-03,-7.553056348115205765e-03,2.600496262311935425e-02,1.672823354601860046e-02,-1.054250542074441910e-02,-2.643647789955139160e-02,3.004397824406623840e-02,3.032808937132358551e-02,-2.585675381124019623e-02,1.178466435521841049e-02,-6.770996376872062683e-03,-2.359324134886264801e-02,1.898397132754325867e-02,-3.247554227709770203e-02,-8.991451933979988098e-03,-1.093714591115713120e-02,2.334930002689361572e-02,1.842099474743008614e-03,-7.316423580050468445e-03,1.969597302377223969e-02,1.598114520311355591e-02,-3.092997521162033081e-02,-2.094740606844425201e-02,-2.322795242071151733e-02,1.863642223179340363e-02,-3.539340570569038391e-02,3.649794310331344604e-02,-2.992998249828815460e-02,-3.901103138923645020e-02,-1.512251445092260838e-03,3.367721289396286011e-02,1.000452786684036255e-02,5.588446743786334991e-03,1.868367008864879608e-02,4.016394261270761490e-03,-1.395888254046440125e-02,1.874273829162120819e-02,-2.480414882302284241e-02,2.322051301598548889e-02,-3.525127470493316650e-02,-9.509173221886157990e-03,-9.483330650255084038e-04,-1.266286894679069519e-02,2.322892844676971436e-02,3.961370792239904404e-03,-1.077563315629959106e-02,1.652379147708415985e-02,2.511225640773773193e-02,-1.199600752443075180e-02,8.714542491361498833e-04,1.695242151618003845e-02,2.174889482557773590e-02,-9.144718060269951820e-04,-6.167672690935432911e-04,4.063366353511810303e-02,4.180635325610637665e-03,-1.821242854930460453e-03,-3.369046375155448914e-02,-1.082009356468915939e-02,-5.690343677997589111e-03,1.266788318753242493e-02,1.022589299827814102e-02,6.292720790952444077e-03,-1.155713398475199938e-04,-9.091459214687347412e-03,1.475025899708271027e-02,2.210025861859321594e-02,-1.240739040076732635e-02,-2.564146369695663452e-02,-2.453991211950778961e-02,-2.161716856062412262e-02,-1.905244216322898865e-02,-1.026179548352956772e-02,-1.429197564721107483e-02,-1.717053912580013275e-02,1.844884082674980164e-02,6.804446224123239517e-03,-2.180614694952964783e-02,-3.002166189253330231e-02,-1.572547852993011475e-02,1.456229854375123978e-02,1.366546493954956532e-03,-2.151822298765182495e-02,-1.882585883140563965e-02,6.693561095744371414e-03,-1.021674950607120991e-03,2.080458961427211761e-02,1.624754630029201508e-02,-1.884652301669120789e-02,7.276518736034631729e-03,9.620112366974353790e-03,-9.458383545279502869e-03,-2.651071920990943909e-02,3.594034642446786165e-04,-3.215159103274345398e-02,-2.973680570721626282e-02,1.616183901205658913e-03,-1.368558499962091446e-02,-3.303836658596992493e-02,1.908335462212562561e-02,8.077425882220268250e-03,-9.977817535400390625e-03,1.285271719098091125e-03,-3.946916759014129639e-02,-2.236038260161876678e-02,-3.499582409858703613e-02,1.979914493858814240e-02,-5.832196213304996490e-03,1.072139479219913483e-02,-3.119758144021034241e-02,4.008539021015167236e-02,-6.537419278174638748e-03,3.515202924609184265e-02,-2.143209055066108704e-02,-5.344681441783905029e-03,-2.057641930878162384e-02,-1.312238350510597229e-02,1.082782540470361710e-02,-4.156610462814569473e-03,-2.129436470568180084e-02,-8.814315311610698700e-03
-3.619698341935873032e-03,-1.085810270160436630e-02,-1.081025693565607071e-02,8.156731724739074707e-03,-3.845970705151557922e-02,3.154103411361575127e-03,-2.328451955690979958e-03,-6.280718836933374405e-03,2.710430882871150970e-02,1.221854425966739655e-02,1.400203793309628963e-03,-8.716849610209465027e-03,-2.966138534247875214e-02,-2.018652483820915222e-02,-1.256266422569751740e-02,-2.650964260101318359e-02,3.495850134640932083e-03,-4.046788963023573160e-04,2.639997936785221100e-02,-1.919772103428840637e-02,3.839136334136128426e-03,3.248165920376777649e-02,-2.238529361784458160e-02,-8.948841132223606110e-03,7.417557761073112488e-03,-4.262236878275871277e-02,-2.626891946420073509e-03,-3.335575386881828308e-02,7.207929622381925583e-03,-2.013326250016689301e-02,-2.409910783171653748e-02,-4.696494340896606445e-02,-4.845345020294189453e-02,7.730603683739900589e-03,-1.933337561786174774e-02,-2.692367322742938995e-02,-9.915661066770553589e-04,-1.276925019919872284e-02,2.435042755678296089e-03,1.031904108822345734e-02,4.048755392432212830e-02,-2.916362695395946503e-02,-3.939189389348030090e-02,-2.965064346790313721e-02,-1.798151060938835144e-02,-1.986834593117237091e-02,2.746793441474437714e-02,2.076767198741436005e-02,-2.182488515973091125e-02,-6.874022539705038071e-03,2.220894396305084229e-02,-4.206569492816925049e-02,1.997935213148593903e-02,-3.704933077096939087e-02,-1.363520789891481400e-02,-6.352821947075426579e-04,1.569344289600849152e-02,-1.309501286596059799e-02,-2.042768523097038269e-02,-5.960395094007253647e-03,-6.139311473816633224e-03,2.408320829272270203e-02,1.835249178111553192e-02,-1.685620844364166260e-02,1.655309088528156281e-02,-1.796604134142398834e-02,-6.792314234189689159e-04,5.412999307736754417e-04,3.705248935148119926e-03,-2.477744035422801971e-02,1.568297669291496277e-02,-1.528335362672805786e-02,-1.242230739444494247e-02,-2.378040924668312073e-02,1.450471486896276474e-02,-6.932251155376434326e-03,-2.597170136868953705e-02,3.823745762929320335e-03,2.894015237689018250e-02,-1.264417893253266811e-03,2.278327941894531250e-03,1.018111780285835266e-02,-6.925837369635701180e-04,-3.673144802451133728e-02,-9.997171349823474884e-03,-4.539229266811162233e-04,-2.341913431882858276e-02,-1.662452891469001770e-02,9.027479682117700577e-04,-3.074191510677337646e-02,-6.498748902231454849e-03,6.751096341758966446e-03,1.196398679167032242e-02,7.849208195693790913e-04,1.995250210165977478e-02,-1.129144709557294846e-02,-2.664463408291339874e-02,1.963762752711772919e-02,-5.744355265051126480e-03,-1.914256252348423004e-02,1.467274315655231476e-02,-5.922808311879634857e-03,-1.757979951798915863e-02,-9.919607080519199371e-03,-4.222716763615608215e-02,2.444335957989096642e-03,2.663786872290074825e-04,1.778073143213987350e-03,-2.888949029147624969e-02,9.489561198279261589e-04,-9.643322555348277092e-04,-1.694134809076786041e-02,2.005387283861637115e-02,-4.133605584502220154e-02,-6.678938400000333786e-03,2.541451714932918549e-02,-2.255703136324882507e-02,-5.391019396483898163e-03,1.107791718095541000e-02,2.358589321374893188e-02,-1.580762444064021111e-03,1.694362610578536987e-02,-1.378928590565919876e-02,-1.353403367102146149e-02,8.660921826958656311e-03,9.929676540195941925e-03,-1.436680182814598083e-02,1.117514818906784058e-02,-5.954831838607788086e-03,4.131074063479900360e-03,-3.276875987648963928e-02,-1.489277649670839310e-02,6.286324467509984970e-03,1.548374909907579422e-02,-1.684516295790672302e-02,-2.411079779267311096e-02,-4.423071816563606262e-02,-2.150305546820163727e-02,2.544515021145343781e-02,-5.010352469980716705e-03,6.130519905127584934e-04,-1.894620060920715332e-02,4.468775913119316101e-02,-1.639652438461780548e-02,-3.725789487361907959e-02,-6.705001927912235260e-03,-1.443684287369251251e-02,2.387774363160133362e-02,7.429943419992923737e-03,9.163721115328371525e-04,2.483852021396160126e-02,3.709076205268502235e-03,-4.587309900671243668e-03,3.606486693024635315e-02,-5.003003031015396118e-02,9.929386898875236511e-03,-5.081127164885401726e-04,1.907352916896343231e-02,-2.746870368719100952e-02,-2.661694958806037903e-02,-2.018233947455883026e-02,5.405489820986986160e-03,-3.663872554898262024e-02,5.075735505670309067e-03,-1.718173921108245850e-02,9.495504200458526611e-03,1.114930259063839912e-03,2.704851701855659485e-02,2.626055385917425156e-03,7.426862139254808426e-03,4.471321124583482742e-03,-9.359580464661121368e-03,-5.829312838613986969e-03,2.063405886292457581e-02,-1.507001090794801712e-02,-2.509503625333309174e-03,3.160754451528191566e-03,4.954378237016499043e-04,1.504469662904739380e-02,-2.352343127131462097e-02,2.279685996472835541e-02,-8.993663825094699860e-03,2.635775320231914520e-02,-9.897437877953052521e-03,-3.715229406952857971e-02,3.272739471867680550e-03,1.847631670534610748e-02,-5.250173155218362808e-03,-1.913940906524658203e-02,1.298452727496623993e-02,1.544697768986225128e-02,-3.197034820914268494e-02,-3.992020711302757263e-02,-2.810955792665481567e-02,-3.921622782945632935e-02,-1.986882649362087250e-03,-2.727298066020011902e-02,-1.046004332602024078e-02,-3.088193386793136597e-02,1.488145720213651657e-02,1.386579684913158417e-02,-3.088085725903511047e-02,-3.754083067178726196e-03,-5.366588477045297623e-03,-3.709785267710685730e-02,-5.597917735576629639e-02,-7.757639046758413315e-03,-1.685810461640357971e-02,1.392992120236158371e-02,-6.223647855222225189e-03,-2.606083266437053680e-02,1.712554134428501129e-02,-1.519319228827953339e-02,-3.267414635047316551e-03,1.163071952760219574e-02,3.496672585606575012e-02,-3.281974792480468750e-02,-1.660437695682048798e-02,1.095635630190372467e-02,1.421210449188947678e-02,5.040307529270648956e-03,3.472544997930526733e-02,-3.669883823022246361e-03,-6.596150808036327362e-03,5.002450663596391678e-03,-1.344998925924301147e-02,9.982178919017314911e-03,-4.594418685883283615e-03,1.641768030822277069e-02,-7.261294405907392502e-03,-5.890626925975084305e-03,1.232972554862499237e-02,4.366156086325645447e-02,-1.931907236576080322e-02,-1.242679264396429062e-02,-8.889650925993919373e-03,-2.138875424861907959e-02,-1.860758638940751553e-03,4.917139187455177307e-03,-1.129127852618694305e-02,-7.220875006169080734e-03,1.889628544449806213e-02,2.510202303528785706e-02,2.718744333833456039e-03,1.804240234196186066e-02,-8.677283301949501038e-03,1.065358333289623260e-02,-2.131860516965389252e-02,-8.629875257611274719e-03,5.157645318831782788e-06,1.529845502227544785e-02,-8.015578612685203552e-03,-3.982281312346458435e-02,-1.671817712485790253e-02,-1.633627153933048248e-02,1.682433183304965496e-03,-5.453763529658317566e-02,3.530073165893554688e-02,-1.877425424754619598e-02,-2.180698327720165253e-02,-2.502066642045974731e-02,-3.620979562401771545e-02,-1.403667684644460678e-02,-1.046543382108211517e-02,1.558368932455778122e-02,-9.691776707768440247e-03,-4.608232993632555008e-03,-2.430521324276924133e-02,8.203608915209770203e-03,-1.554935151943936944e-04,-2.071133255958557129e-02,2.408967353403568268e-03,-1.642212155275046825e-03,1.831060834228992462e-02,-2.819379791617393494e-03,1.029401435516774654e-03,-4.070546478033065796e-02,-9.188080206513404846e-03,8.752596564590930939e-03,-6.584233604371547699e-03,2.868336066603660583e-02,6.412980146706104279e-04,2.391254343092441559e-02,-9.333726949989795685e-03,-3.891842206940054893e-03,-3.700794652104377747e-02,-1.396518666297197342e-02,1.122173201292753220e-02,-4.614868760108947754e-02,-3.157923743128776550e-02,-1.639859564602375031e-02,1.890769694000482559e-03,-7.952954620122909546e-03,-5.609949585050344467e-03,5.034321919083595276e-02,1.133286952972412109e-02,1.241595204919576645e-02,8.146857726387679577e-04,-2.063529379665851593e-02,6.964484229683876038e-03,1.078366674482822418e-02,8.954755961894989014e-03,-4.743991885334253311e-03,-1.949774473905563354e-02,9.560918435454368591e-03,3.556863870471715927e-03,9.240760467946529388e-03,1.691100373864173889e-02,2.627611532807350159e-02,-9.885974228382110596e-03,2.300578914582729340e-02,-1.612066291272640228e-02,-3.389322198927402496e-03,4.612622782588005066e-03,7.869410328567028046e-03,2.697600983083248138e-02,1.257397234439849854e-02,-1.348371803760528564e-02,-3.449866920709609985e-02,-2.514422172680497169e-03,-9.861962869763374329e-03,-1.061899121850728989e-03,1.828295551240444183e-02,-5.664825811982154846e-02,-1.493553398177027702e-03,-2.601612545549869537e-02,-2.293980121612548828e-02,-1.467427820898592472e-03,2.345343306660652161e-02,6.945366505533456802e-03,-3.262933716177940369e-02,4.426345974206924438e-02,2.533798106014728546e-02,1.637933030724525452e-02,-3.183142840862274170e-02,1.331501640379428864e-02,-2.785556390881538391e-02,8.552412502467632294e-03,-5.263505503535270691e-03,2.719049155712127686e-02,-2.898981561884284019e-03,1.162608806043863297e-02,-5.542419385164976120e-03,-1.067808270454406738e-02,1.888508163392543793e-02,-8.886938914656639099e-03,-6.975317373871803284e-03,1.264555146917700768e-03,1.664147828705608845e-03,-1.517157349735498428e-02,2.624643035233020782e-02,1.811310648918151855e-02,-7.157420273870229721e-03,9.683068841695785522e-03,-1.707289181649684906e-02,8.382746949791908264e-03,-2.816331759095191956e-02,-1.894972659647464752e-02,-1.995913684368133545e-02,-3.440278396010398865e-02,-3.929394879378378391e-04,-7.894771173596382141e-03,1.720244763419032097e-03,-1.296947151422500610e-02,-2.481024153530597687e-02,-2.677999809384346008e-02,-1.765106245875358582e-02,-3.895464539527893066e-02,-1.692244969308376312e-02,-2.914557233452796936e-02,-4.424760490655899048e-02,-1.130832452327013016e-02,-9.990439750254154205e-03,1.699208654463291168e-02,-2.160009928047657013e-02,-2.338706329464912415e-02,-8.757038041949272156e-03,2.375721232965588570e-03,-2.263268828392028809e-02,-7.986251730471849442e-04,-4.660543054342269897e-03,1.733985962346196175e-03,-4.186411574482917786e-02,1.761266961693763733e-02,1.574433967471122742e-02,2.118851989507675171e-02,1.369740348309278488e-02,-5.265855789184570312e-02,4.686716943979263306e-03,-1.252078451216220856e-02,-3.416902618482708931e-03,1.723854616284370422e-02,-2.507101558148860931e-02,-1.608608639799058437e-03,-1.224415749311447144e-02,3.522017970681190491e-03,-2.862850087694823742e-04,-2.171437256038188934e-02,-4.123151767998933792e-03,5.908587016165256500e-03,-2.467824611812829971e-03,1.129790954291820526e-02,-3.166607394814491272e-02,1.589822024106979370e-02,3.124840324744582176e-03,-1.929843612015247345e-02,3.773977281525731087e-03,-2.601778693497180939e-02,-2.629275247454643250e-02,-6.019090767949819565e-03,-2.552986517548561096e-02,-2.626101858913898468e-02,-7.398909889161586761e-03,-1.638997113332152367e-03,-2.666249126195907593e-02,-3.122108615934848785e-02,-4.086585342884063721e-02,-2.767506614327430725e-02,-2.204032056033611298e-02,-1.812556013464927673e-02,-1.955669373273849487e-02,9.320997050963342190e-04,4.903271110379137099e-05,-5.473741143941879272e-02,-1.130161061882972717e-02,1.847094041295349598e-03,1.882543787360191345e-02,2.120499871671199799e-02,-1.000738795846700668e-02,-2.724030427634716034e-02,1.074148993939161301e-02,-7.084845099598169327e-03,-1.619515381753444672e-02,-9.848269633948802948e-03,-6.158879026770591736e-03,4.150870721787214279e-03,-3.809277713298797607e-02,-3.667704062536358833e-03,-4.964909050613641739e-03,1.409515086561441422e-02,-1.237714942544698715e-02,-6.220440380275249481e-03,1.683997176587581635e-02,-1.388621167279779911e-03,4.429295659065246582e-02,-3.657349571585655212e-02,2.347096428275108337e-02,3.703377675265073776e-03,-2.627139538526535034e-02,6.863407324999570847e-03,-2.139590121805667877e-02,-1.967668347060680389e-02,-2.776823379099369049e-02,-7.049532141536474228e-03,-7.076100911945104599e-03,-3.249312564730644226e-02,2.450513653457164764e-02,1.440333202481269836e-02,1.440025633201003075e-03,-3.193906322121620178e-02,7.460476364940404892e-03,-4.310734570026397705e-03,-3.661596029996871948e-02,-2.969983220100402832e-02,2.785275317728519440e-02,3.269282751716673374e-04,6.723336409777402878e-03,-2.212576568126678467e-02,-3.176704421639442444e-02,-4.138721153140068054e-03,4.603554029017686844e-03,-1.672215014696121216e-02,-1.669182442128658295e-02,2.804397605359554291e-02,-1.578862220048904419e-02,-1.411880739033222198e-02,1.493804808706045151e-02,4.401903599500656128e-03,-1.813673041760921478e-02,3.715842962265014648e-03,-2.156719379127025604e-02,-2.489417418837547302e-02,3.151407092809677124e-02,1.132148411124944687e-02,-2.833902835845947266e-03,1.175031904131174088e-02,2.013440616428852081e-02,-7.181616965681314468e-04,-2.655076049268245697e-02,-8.982022292912006378e-03,7.498984690755605698e-03,1.883004792034626007e-02,-4.477452952414751053e-03,7.200587075203657150e-03,2.990691363811492920e-02,3.618212183937430382e-03,7.805962581187486649e-03,-2.764160186052322388e-02,-7.498551160097122192e-03,7.118147332221269608e-04,3.154564881697297096e-03,-8.701168932020664215e-03,1.134016551077365875e-02,-2.056016586720943451e-02,-2.251576632261276245e-03,5.426747258752584457e-03,1.433797995559871197e-03,2.420615591108798981e-02,-1.845129579305648804e-02,4.403383471071720123e-03,-1.110470481216907501e-02,1.762264221906661987e-02,-2.498498931527137756e-02,1.319188531488180161e-02,3.669983521103858948e-02,1.509783137589693069e-02,-1.744876243174076080e-02,-3.345890901982784271e-03,-2.732696011662483215e-02,-6.033870391547679901e-03,-2.599783428013324738e-02,-1.026712357997894287e-02,-8.899718523025512695e-03,2.874807640910148621e-02,-4.542285203933715820e-02,-1.172663643956184387e-02,-5.326287820935249329e-03,-2.889821492135524750e-02,6.691053509712219238e-03,-2.403242513537406921e-03,-1.757509075105190277e-02,2.325137890875339508e-02,-4.645632579922676086e-03,-4.213554412126541138e-02,1.353664975613355637e-02,3.207076340913772583e-02,-3.637745231389999390e-02,-4.162189364433288574e-02,-2.221930958330631256e-02,1.468189060688018799e-02,-1.843673363327980042e-02,-1.114142406731843948e-02,-3.144058585166931152e-02,-1.443617977201938629e-02,1.996010355651378632e-02,1.471621263772249222e-02,-2.130901813507080078e-02,1.830087602138519287e-02,-3.806376829743385315e-02,-1.633374579250812531e-02,-2.026886446401476860e-03,-4.405389353632926941e-02,-7.201190106570720673e-03,1.639048196375370026e-02,-4.073480144143104553e-02,-3.849134966731071472e-02,-2.509818784892559052e-02,6.122599355876445770e-03,-9.193941950798034668e-03,-4.401952028274536133e-02,8.497406728565692902e-03,-1.517005078494548798e-02,6.147154141217470169e-03,6.105950102210044861e-03,-1.269643846899271011e-02,-1.025258749723434448e-02,1.194039732217788696e-02,1.990665122866630554e-02,-2.883011475205421448e-02,-1.495982427150011063e-02,-2.142228931188583374e-02,-5.525148939341306686e-03,-2.786201890558004379e-03,8.802147349342703819e-04,-3.708171844482421875e-02,-1.201470661908388138e-02,2.603178098797798157e-02,3.330006450414657593e-02,-1.241067703813314438e-02,7.254494819790124893e-03,3.250052407383918762e-02,2.611223049461841583e-02,1.334171462804079056e-02,2.397737279534339905e-02,-4.031968489289283752e-02,1.615648157894611359e-02,1.640090253204107285e-03,-2.357342978939414024e-03,-1.238429080694913864e-02,-9.181467816233634949e-03,-1.707582361996173859e-02,-2.460414543747901917e-02,-3.248776495456695557e-02,1.341597177088260651e-02,-2.723007649183273315e-02,-1.766172237694263458e-02,3.229240328073501587e-02,-6.389210931956768036e-03,2.268840745091438293e-02,1.553120743483304977e-02,-2.097519673407077789e-02,-9.227221831679344177e-03,-1.319637708365917206e-02,-4.256209358572959900e-02,-2.505850046873092651e-02,-1.710525713860988617e-02,-2.496190555393695831e-02,-1.143124885857105255e-02,-9.740250185132026672e-03,-2.292012423276901245e-02,2.803901955485343933e-02,-1.256171520799398422e-02,-1.380295492708683014e-02,1.203587092459201813e-02,1.300081261433660984e-03,-5.615101195871829987e-03,-5.036757793277502060e-03,4.433909431099891663e-03,1.029511075466871262e-02,-3.513652831315994263e-02,3.394643077626824379e-03,-2.779894694685935974e-02,-1.470858789980411530e-02,1.658374816179275513e-02,-1.117740524932742119e-03,2.597517706453800201e-02,-9.411873295903205872e-03,-7.568598375655710697e-04,-2.877806499600410461e-02,2.038247697055339813e-02,1.516132499091327190e-03,8.580005727708339691e-03,-3.520540194585919380e-03,2.965626493096351624e-02,-3.686303645372390747e-02,-1.281135343015193939e-02,1.357335504144430161e-02,5.810440517961978912e-03,4.483756609261035919e-03,-1.728799752891063690e-02,-3.122072480618953705e-02,1.801292179152369499e-03,3.654611483216285706e-02,1.404578611254692078e-02,3.779071196913719177e-02,4.511441104114055634e-03,-1.996661350131034851e-02,2.459321543574333191e-02,-1.072080247104167938e-02,-3.625240875408053398e-03,-1.136178057640790939e-02,1.337726227939128876e-02,-6.988752633333206177e-03,6.377284298650920391e-04,1.116535277105867863e-03,-5.478129605762660503e-05,-1.522732339799404144e-02,9.933174587786197662e-03,4.863570909947156906e-03,1.703063584864139557e-02,-2.754793502390384674e-02,-1.241922006011009216e-02,1.354727055877447128e-02,-3.673172369599342346e-02,-2.815406024456024170e-02,2.053349092602729797e-02,3.617809340357780457e-02,-9.849829599261283875e-03,1.050129067152738571e-02,-2.499787509441375732e-02,-2.978429012000560760e-02,-1.439486257731914520e-02,-4.144756868481636047e-02,1.620573364198207855e-02,-2.551816636696457863e-03,4.354267381131649017e-03,9.301948361098766327e-03,-3.061439655721187592e-02,1.359914243221282959e-02,-9.416588582098484039e-03,-1.954384148120880127e-02,-2.997488714754581451e-02,1.246679853647947311e-02,-4.354497417807579041e-03,-6.580530665814876556e-03,1.256726868450641632e-02,1.514320448040962219e-02,-3.228534013032913208e-02,-1.065975334495306015e-02,8.388821966946125031e-03,1.890947669744491577e-02,8.073594421148300171e-03,1.584090664982795715e-02,-8.471879176795482635e-03,5.770158022642135620e-04,-1.619309186935424805e-02,7.546775508671998978e-03,-2.217804640531539917e-02,1.670240983366966248e-02,-3.118657507002353668e-03,-2.161060646176338196e-02,7.758377119898796082e-03,-2.344701252877712250e-02,-1.788530126214027405e-02,-2.346341684460639954e-02,-1.261205412447452545e-02,-1.769084483385086060e-03,-9.412337094545364380e-03,1.245706062763929367e-02,-2.125591225922107697e-02,-1.787219196557998657e-02,-2.203478105366230011e-02,5.509821325540542603e-02,-2.316106855869293213e-02,1.577640697360038757e-02,-5.296057090163230896e-03,1.117987371981143951e-02,-1.432063989341259003e-02,-3.143749758601188660e-02,-9.100759401917457581e-03,1.112662162631750107e-02,1.338704302906990051e-02,-1.064022071659564972e-02,-5.705234128981828690e-03,-4.065360873937606812e-02,3.361186012625694275e-02,2.167761139571666718e-02,2.154112793505191803e-02,7.830418646335601807e-03,-4.161394014954566956e-02,-1.443253457546234131e-02,3.203668631613254547e-03,7.057271897792816162e-03,-1.716259494423866272e-02,1.227890490554273129e-03,-1.745282113552093506e-02,-1.311740558594465256e-02,5.825866246595978737e-04,7.541230414062738419e-03,3.617751877754926682e-03,-2.117100544273853302e-02,-6.065065506845712662e-03,3.524956107139587402e-02,-1.938020461238920689e-03,3.240087628364562988e-02,1.893643848598003387e-02,-2.512817736715078354e-03,-5.342756630852818489e-04,1.677756011486053467e-02,-1.667111064307391644e-03,-9.719640016555786133e-03,1.517403870820999146e-02,4.701745696365833282e-03,1.824692264199256897e-02,-8.911686949431896210e-03,-2.847992070019245148e-02,6.777463946491479874e-03,2.293343655765056610e-02,-1.808154024183750153e-02,2.991122193634510040e-03,2.579516731202602386e-02,-1.735724136233329773e-02,8.776513859629631042e-03,-8.747875690460205078e-03,3.606735728681087494e-03,-1.990369148552417755e-02,-1.809233240783214569e-02,-4.389522224664688110e-02,-1.405957527458667755e-02,-1.867604441940784454e-02,-1.872490905225276947e-02,1.713647320866584778e-02,7.629300816915929317e-04,-1.755139417946338654e-02,7.762348745018243790e-03,-4.051720723509788513e-02,-7.973400875926017761e-03,4.234643653035163879e-02,1.813868805766105652e-02,-6.885990966111421585e-03,-2.032837085425853729e-02,3.709624335169792175e-02,-2.796480059623718262e-02,-1.297384593635797501e-02,2.561614848673343658e-02,-3.322188556194305420e-02,-8.918345905840396881e-03,-1.141097303479909897e-02,2.011544071137905121e-02,-3.181184176355600357e-03,-2.351955138146877289e-02,1.157186576165258884e-03,-1.431185100227594376e-02,1.867676153779029846e-02,-3.141651395708322525e-04,1.720173098146915436e-02,-2.235744707286357880e-02,1.677024178206920624e-02,-2.592516317963600159e-02,-9.833899326622486115e-03,-3.883278742432594299e-02,-1.104347407817840576e-02,-6.817417219281196594e-03,-1.120823808014392853e-02,-2.369406446814537048e-02,-4.753560572862625122e-02,1.229865942150354385e-03,1.178685668855905533e-02,2.134807780385017395e-02,-2.449000813066959381e-02,2.883997373282909393e-02,-1.587464474141597748e-02,4.154436290264129639e-02,-4.584873095154762268e-03,4.438336472958326340e-03,8.268048986792564392e-03,-1.485404931008815765e-02,-5.342171643860638142e-04,-4.111686721444129944e-02,-1.343969162553548813e-02,-2.473189495503902435e-02,1.313802320510149002e-02,2.957576327025890350e-02,3.068784950301051140e-03,-3.574159741401672363e-02,4.878037143498659134e-03,-1.771386899054050446e-02,-1.358561404049396515e-02,-6.321184802800416946e-03,2.053103782236576080e-02,-4.498724639415740967e-02,-2.319313399493694305e-02,3.779070451855659485e-02,-4.015338048338890076e-02,-1.597910933196544647e-02,1.406761072576045990e-02,2.032514289021492004e-02,-3.103126771748065948e-03,